%YAML:1.0
my_svm: !!opencv-ml-svm
   svm_type: C_SVC
   kernel: { type:RBF, gamma:5.3830000000000000e+00 }
   C: 12.
   term_criteria: { epsilon:1.1920928955078125e-07, iterations:1000 }
   var_all: 64
   var_count: 64
   class_count: 22
   class_labels: !!opencv-matrix
      rows: 1
      cols: 22
      dt: i
      data: [ 48, 49, 50, 51, 52, 53, 54, 55, 56, 57, 65, 66, 67, 68, 74,
          75, 76, 77, 83, 84, 88, 89 ]
   sv_total: 648
   support_vectors:
      - [ 2.97116011e-01, 1.86300710e-01, 1.49346054e-01, 4.76801321e-02,
          3.67280934e-03, 0., 8.29644576e-02, 1.13917544e-01,
          1.96372315e-01, 1.32581025e-01, 1.19902059e-01, 0.,
          6.36149244e-03, 0., 6.27123564e-03, 0., 2.18154326e-01,
          3.08845215e-03, 0., 0., 0., 1.36125758e-01, 9.91982520e-02,
          1.63795948e-01, 1.66764393e-01, 0., 0., 2.54694074e-02,
          1.19410254e-01, 1.25027299e-01, 2.28092045e-01, 1.56362846e-01,
          1.16583258e-01, 0., 0., 0., 6.77816495e-02, 1.68610692e-01,
          1.95321530e-01, 1.75668836e-01, 2.29164362e-01, 1.63323618e-02,
          1.68689638e-02, 1.14849582e-01, 3.81025150e-02, 1.14511468e-01,
          1.92505822e-01, 1.67499676e-01, 1.94264531e-01, 1.92612067e-01,
          7.79382065e-02, 9.59532708e-02, 1.15293331e-01, 0., 0., 0.,
          2.76510835e-01, 2.20981672e-01, 8.84844735e-02, 1.14795953e-01,
          1.14311405e-01, 0., 0., 0. ]
      - [ 2.05725208e-01, 1.94104180e-01, 1.72853291e-01, 5.44016846e-02,
          5.70330061e-02, 1.04800472e-02, 0., 0., 2.14227647e-01,
          1.49722740e-01, 9.25016850e-02, 9.59104821e-02, 1.11159757e-01,
          4.19267975e-02, 2.02601552e-02, 2.03954905e-01, 1.16901606e-01,
          4.38927067e-03, 0., 1.08391657e-01, 5.78178689e-02,
          1.01719476e-01, 2.09004998e-01, 1.93844974e-01, 0., 0.,
          1.36396931e-02, 0., 0., 1.95805565e-01, 1.38713956e-01,
          2.91195184e-01, 0., 0., 0., 0., 5.89251332e-02, 1.81054160e-01,
          2.07521662e-01, 2.56328046e-01, 1.06334433e-01, 5.37573686e-03,
          0., 0., 0., 1.09763533e-01, 1.95227891e-01, 1.69735804e-01,
          1.89057216e-01, 1.43300608e-01, 1.50900587e-01, 0.,
          1.46247726e-02, 0., 3.10368324e-03, 2.02904642e-01,
          1.95819080e-01, 2.63879895e-01, 2.89645176e-02, 0., 0., 0.,
          1.94553565e-02, 1.17043957e-01 ]
      - [ 1.95504755e-01, 2.27170184e-01, 4.26561348e-02, 1.49886431e-02,
          6.44787541e-03, 0., 1.24231689e-02, 1.63125217e-01,
          1.34969488e-01, 1.91768065e-01, 1.17862463e-01, 9.29892510e-02,
          6.86162850e-03, 6.19115029e-03, 1.05620874e-02, 2.31424361e-01,
          1.41689003e-01, 3.04901181e-03, 0., 0., 9.26195383e-02,
          1.09556295e-01, 2.07661659e-01, 1.64341211e-01, 1.14943922e-01,
          2.58768555e-02, 0., 0., 3.62590677e-03, 1.75814733e-01,
          1.60445958e-01, 2.68920392e-01, 4.74165045e-02, 0., 0., 0., 0.,
          1.44906983e-01, 1.89439178e-01, 2.81062722e-01, 1.15972348e-01,
          8.13755300e-03, 0., 0., 9.22253728e-02, 1.09508537e-01,
          1.35833308e-01, 2.42590085e-01, 1.11873247e-01, 1.31032035e-01,
          1.18477106e-01, 9.30303410e-02, 0., 0., 1.18724769e-02,
          1.99976981e-01, 2.26358101e-01, 2.28010640e-01, 4.66211885e-02,
          5.78955188e-03, 6.83125993e-03, 0., 0., 2.21223950e-01 ]
      - [ 2.27589414e-01, 2.28054538e-01, 4.61478867e-02, 0.,
          6.45834487e-03, 0., 1.13327652e-02, 2.00060427e-01,
          1.47065744e-01, 1.33906469e-01, 1.17632374e-01, 9.34153199e-02,
          4.56673931e-03, 6.20120298e-03, 1.05792368e-02, 2.00746417e-01,
          1.15990207e-01, 3.05396272e-03, 0., 0., 9.29333195e-02,
          1.10094719e-01, 1.51726037e-01, 1.78203911e-01, 1.47664309e-01,
          7.76400939e-02, 0., 0., 0., 5.06569594e-02, 2.32168257e-01,
          2.77461290e-01, 0., 4.31895535e-03, 0., 0., 0., 4.66345437e-02,
          1.91586912e-01, 2.74635315e-01, 1.63370326e-01, 5.28961839e-03,
          0., 0., 9.29536298e-02, 1.11080587e-01, 2.08589703e-01,
          2.01255590e-01, 1.39009103e-01, 1.67380527e-01, 1.47678256e-01,
          9.30927992e-02, 8.20095744e-03, 6.20120298e-03, 1.23223178e-02,
          2.31590956e-01, 2.26040006e-01, 1.49286523e-01, 1.18274227e-01,
          7.57642314e-02, 0., 0., 0., 1.73615769e-01 ]
      - [ 2.82794148e-01, 1.36676043e-01, 2.17833489e-01, 1.30116582e-01,
          5.22101158e-03, 0., 0., 0., 1.76701650e-01, 1.79659218e-01,
          1.00855917e-01, 1.14674166e-01, 2.32480913e-02, 1.35412673e-02,
          4.39033005e-03, 0., 2.70951182e-01, 1.51461642e-02, 0., 0.,
          1.12238139e-01, 1.27160579e-01, 1.51579753e-01, 1.39699280e-01,
          1.86788946e-01, 0., 1.14496676e-02, 0., 8.28028470e-02,
          1.09795265e-01, 2.07844317e-01, 1.37633622e-01, 1.68193415e-01,
          0., 0., 0., 1.13997079e-01, 1.83868065e-01, 2.07208768e-01,
          2.22815081e-01, 1.43619999e-01, 0., 0., 1.61366314e-02,
          6.62460104e-02, 1.13918781e-01, 1.26423776e-01, 1.33227870e-01,
          2.59126931e-01, 1.12506174e-01, 1.32495105e-01, 0., 0., 0.,
          4.39033005e-03, 5.89478528e-03, 2.98857212e-01, 2.08521172e-01,
          1.08858109e-01, 5.87890744e-02, 5.67239448e-02, 0., 0., 0. ]
      - [ 2.99431026e-01, 2.30893359e-01, 5.30568771e-02, 0.,
          6.43222220e-03, 0., 6.08322024e-03, 1.24706015e-01,
          2.12708518e-01, 1.34910181e-01, 1.09541453e-01, 9.23300609e-02,
          5.11535816e-03, 0., 6.08322024e-03, 0., 2.30712697e-01,
          8.60297307e-03, 5.40883280e-03, 0., 9.41752419e-02,
          1.12796247e-01, 1.35004669e-01, 9.02077779e-02, 2.30174094e-01,
          7.52643682e-03, 5.40883280e-03, 7.34468689e-03, 3.61710438e-03,
          5.06126024e-02, 2.42601663e-01, 1.73157886e-01, 1.15514860e-01,
          8.11779778e-03, 0., 0., 0., 8.80614743e-02, 2.16998041e-01,
          1.38134331e-01, 2.70961493e-01, 1.00878794e-02, 0., 0.,
          9.29222703e-02, 1.17887720e-01, 2.03792602e-01, 1.65090963e-01,
          2.37363696e-01, 1.69066861e-01, 3.46782133e-02, 1.46907464e-01,
          0., 0., 0., 1.15384020e-01, 2.96379805e-01, 1.78154960e-01,
          1.09617703e-01, 2.45801732e-02, 0., 0., 3.04161012e-03,
          5.76473810e-02 ]
      - [ 2.26500571e-01, 2.36686915e-01, 6.49869815e-02, 0.,
          1.44819086e-02, 7.06492923e-03, 6.08889246e-03, 1.62635401e-01,
          1.81504875e-01, 1.69857636e-01, 4.07337211e-02, 9.29129273e-02,
          1.15889281e-01, 6.18187943e-03, 1.37159182e-02, 1.81392536e-01,
          1.63443610e-01, 4.30549728e-03, 0., 5.78088267e-03,
          1.26108289e-01, 8.50051343e-02, 1.69009656e-01, 2.13765353e-01,
          1.15316644e-01, 0., 0., 0., 0., 6.44585192e-02, 2.42115736e-01,
          2.36668020e-01, 7.17732832e-02, 0., 0., 0., 0., 6.12292178e-02,
          2.18836963e-01, 2.79458731e-01, 1.15628771e-01, 6.21117605e-03,
          0., 0., 5.08419871e-02, 8.45757201e-02, 1.68557778e-01,
          2.31950402e-01, 1.53448939e-01, 1.64890349e-01, 5.12482747e-02,
          9.28005353e-02, 6.82103075e-03, 0., 8.05484783e-03,
          8.16415772e-02, 2.82915562e-01, 2.19011292e-01, 1.15601450e-01,
          2.26948671e-02, 7.24095432e-03, 0., 4.30549728e-03,
          1.89381585e-01 ]
      - [ 1.98264763e-01, 2.25530460e-01, 1.56405717e-01, 8.14825445e-02,
          7.55694807e-02, 0., 0., 7.91436657e-02, 1.55861303e-01,
          2.06072837e-01, 1.24892645e-01, 4.67297575e-03, 1.50712868e-02,
          0., 0., 1.63938358e-01, 1.87516272e-01, 0., 1.56250354e-02, 0.,
          0., 1.23148620e-01, 2.20517933e-01, 1.12213910e-01,
          1.07387006e-01, 1.71919391e-02, 0., 0., 1.13593325e-01,
          1.35074556e-01, 2.38722563e-01, 1.75160781e-01, 6.70991912e-02,
          0., 1.72340143e-02, 7.56610185e-02, 1.07312992e-01,
          1.39945924e-01, 2.40230009e-01, 1.71340168e-01, 1.87828615e-01,
          0., 0., 0., 1.11181185e-01, 9.74079370e-02, 2.15538099e-01,
          1.59266844e-01, 1.50633544e-01, 2.18360335e-01, 1.02412730e-01,
          1.10592090e-01, 0., 0., 0., 1.17496684e-01, 2.24442720e-01,
          2.40405366e-01, 1.39378101e-01, 1.09195784e-01, 7.95628801e-02,
          0., 0., 6.66359589e-02 ]
      - [ 2.41750672e-01, 1.90293148e-01, 1.63761824e-01, 7.71781504e-02,
          0., 0., 0., 1.06958412e-01, 1.62644431e-01, 1.79598108e-01,
          1.07213221e-01, 9.62748975e-02, 0., 0., 0., 1.66243777e-01,
          2.12613612e-01, 0., 0., 0., 1.03969961e-01, 9.30802971e-02,
          1.67998165e-01, 1.52090624e-01, 1.35249361e-01, 0., 0., 0., 0.,
          1.77281603e-01, 2.08356559e-01, 1.82836011e-01, 1.50570095e-01,
          0., 0., 1.47448694e-02, 3.40229236e-02, 1.47882923e-01,
          2.39729062e-01, 2.12677807e-01, 1.63420871e-01, 5.50208567e-03,
          6.28260197e-03, 0., 1.58055305e-01, 9.31850746e-02,
          4.69158292e-02, 2.04524159e-01, 1.78813815e-01, 8.99848118e-02,
          9.22824517e-02, 1.55469716e-01, 0., 0., 8.18608701e-03,
          1.13623694e-01, 2.57681817e-01, 2.11651087e-01, 1.75771967e-01,
          4.09848429e-02, 0., 3.73894945e-02, 7.48971105e-02,
          1.47717595e-01 ]
      - [ 3.13814938e-01, 1.95672721e-01, 1.10641725e-01, 7.70688131e-02,
          6.38574176e-03, 0., 0., 1.78744961e-02, 2.27173641e-01,
          1.47802442e-01, 1.06831551e-01, 0., 0., 0., 0., 4.63591795e-03,
          1.89894572e-01, 3.10022524e-03, 0., 0., 4.04149964e-02,
          1.18638158e-01, 1.07762970e-01, 1.57310843e-01, 1.63061708e-01,
          0., 0., 0., 1.30550563e-01, 1.09304562e-01, 2.40351096e-01,
          1.80595219e-01, 1.65347189e-01, 0., 0., 0., 1.05871232e-02,
          1.50085494e-01, 1.86608672e-01, 1.68678865e-01, 2.61974603e-01,
          7.79665355e-03, 9.08707678e-02, 8.32696557e-02, 8.28511938e-02,
          7.78370202e-02, 1.85831577e-01, 1.45661697e-01, 1.91180393e-01,
          1.74619660e-01, 9.74125490e-02, 8.77211839e-02, 1.16499580e-01,
          0., 0., 0., 2.75078148e-01, 2.05525041e-01, 1.41454697e-01,
          1.55456901e-01, 0., 0., 3.10022524e-03, 0. ]
      - [ 2.69294769e-01, 2.62365252e-01, 7.16268420e-02, 5.36641516e-02,
          7.27628693e-02, 0., 4.42207791e-03, 0., 2.33549386e-01,
          1.03067964e-01, 1.39813542e-01, 1.29069149e-01, 6.44064741e-03,
          0., 3.12688132e-03, 8.88699479e-03, 1.46049291e-01,
          2.21146140e-02, 0., 1.12812340e-01, 8.04522708e-02,
          1.10967435e-01, 1.29275739e-01, 1.36715949e-01, 1.77679121e-01,
          1.03706913e-02, 9.91119146e-02, 0., 7.94335455e-02,
          1.98706433e-01, 2.06588581e-01, 2.24857464e-01, 1.18921861e-01,
          7.06081325e-03, 1.03920531e-02, 1.39311012e-02, 5.25929220e-02,
          7.32896328e-02, 2.26439118e-01, 2.74698853e-01, 1.37650639e-01,
          7.65926344e-03, 0., 0., 5.37135080e-02, 8.42624307e-02,
          1.66831821e-01, 1.82601169e-01, 1.78929374e-01, 1.98164701e-01,
          7.20174164e-02, 0., 3.71850934e-03, 0., 3.12688132e-03,
          1.19180985e-01, 2.43832007e-01, 2.06334084e-01, 1.35109305e-01,
          1.54971212e-01, 3.71850934e-03, 0., 0., 0. ]
      - [ 2.87490070e-01, 1.83694795e-01, 1.40721425e-01, 1.71509773e-01,
          1.85343623e-02, 0., 0., 1.18673474e-01, 1.20617040e-01,
          1.88840896e-01, 1.15249462e-01, 7.09472150e-02, 6.58134976e-03,
          0., 5.53423353e-03, 7.52184028e-03, 2.29116723e-01,
          3.11212824e-03, 0., 0., 9.81383622e-02, 1.19983017e-01,
          1.16583660e-01, 2.09709138e-01, 1.21528283e-01, 0., 0., 0.,
          6.27780035e-02, 1.80346802e-01, 1.84943289e-01, 1.88920185e-01,
          8.27560946e-03, 0., 0., 1.56348012e-02, 1.10148937e-01,
          1.84242517e-01, 2.21887350e-01, 1.35767728e-01, 2.20125854e-01,
          1.73176266e-02, 7.02749938e-03, 0., 7.12417439e-02,
          1.13246679e-01, 1.72407538e-01, 1.87479600e-01, 2.00361386e-01,
          1.97484955e-01, 7.39805326e-02, 1.14720084e-01, 0., 0.,
          7.72552704e-03, 0., 2.78553039e-01, 2.19292685e-01,
          1.39224499e-01, 6.13694042e-02, 6.13901094e-02, 0., 0., 0. ]
      - [ 2.98456550e-01, 1.36707813e-01, 1.94751233e-01, 9.28547680e-02,
          6.55261278e-02, 0., 0., 0., 2.40958765e-01, 1.40715510e-01,
          9.70507860e-02, 1.14895202e-01, 0., 0., 5.38127311e-03,
          1.23561090e-02, 2.19517961e-01, 2.05718130e-02, 0.,
          1.13682188e-01, 3.69472336e-03, 1.01558089e-01, 1.30038172e-01,
          2.40268245e-01, 1.65233053e-02, 2.27945745e-02, 0., 0.,
          1.35787994e-01, 1.24580286e-01, 2.20191374e-01, 1.71029612e-01,
          0., 0., 0., 0., 9.93575752e-02, 1.21761665e-01, 2.30497330e-01,
          1.54707134e-01, 2.24887103e-01, 1.48091121e-02, 0., 0., 0.,
          1.07570253e-01, 1.76638320e-01, 2.17136681e-01, 1.65067703e-01,
          2.21657485e-01, 9.95156541e-02, 0., 0., 0., 5.38127311e-03,
          6.94719423e-03, 2.67549753e-01, 2.30443925e-01, 1.29275441e-01,
          1.05407432e-01, 0., 1.98432487e-02, 0., 0. ]
      - [ 2.90208817e-01, 2.23937333e-01, 1.46262601e-01, 2.40368396e-02,
          0., 0., 0., 0., 1.96099743e-01, 1.77737042e-01, 1.10481486e-01,
          9.75680053e-02, 1.18342310e-01, 0., 4.40534251e-03,
          6.58752397e-03, 2.28857994e-01, 1.50716165e-02, 3.80454622e-02,
          1.15024999e-01, 9.38000530e-02, 7.91715682e-02, 1.82462201e-01,
          1.68164670e-01, 1.18988186e-01, 0., 6.32523885e-03,
          5.28953150e-02, 5.51761538e-02, 1.69456437e-01, 2.11725622e-01,
          1.58756122e-01, 2.03215569e-01, 1.32282460e-02, 0.,
          1.70665551e-02, 0., 4.02070433e-02, 2.69841343e-01,
          2.24707872e-01, 1.68108881e-01, 1.19451825e-02, 6.32523885e-03,
          0., 4.96019647e-02, 1.25949651e-01, 1.12725213e-01,
          1.02340259e-01, 2.39633024e-01, 8.34463090e-02, 1.29906461e-01,
          3.52109708e-02, 0., 0., 6.35521440e-03, 7.52889644e-03,
          2.95809060e-01, 1.79708585e-01, 1.60497978e-01, 1.01528525e-01,
          3.70443682e-03, 0., 0., 0. ]
      - [ 2.99892306e-01, 1.91096455e-01, 1.38171315e-01, 8.37427825e-02,
          6.06672429e-02, 0., 3.12373787e-03, 0., 2.38262743e-01,
          1.01929978e-01, 9.33399051e-02, 9.65361819e-02, 1.18473679e-01,
          0., 3.12373787e-03, 2.61598919e-02, 2.32138216e-01,
          1.33758355e-02, 0., 2.15592291e-02, 1.26202062e-01,
          1.27241239e-01, 1.01160109e-01, 1.25452101e-01, 2.00480595e-01,
          0., 0., 0., 3.37116122e-02, 1.65546060e-01, 2.28133455e-01,
          1.62031263e-01, 1.17992654e-01, 0., 0., 0., 8.75674635e-02,
          9.35592651e-02, 2.32049614e-01, 1.74720466e-01, 2.28384584e-01,
          7.72966119e-03, 0., 8.09054356e-03, 8.64221901e-02,
          1.00825228e-01, 1.67605579e-01, 1.65480211e-01, 1.93316162e-01,
          1.90807804e-01, 7.82770440e-02, 9.69669819e-02, 0., 0.,
          3.12373787e-03, 5.93144400e-03, 2.92368263e-01, 2.16030151e-01,
          1.50210068e-01, 0., 0., 0., 0., 0. ]
      - [ 1.94279894e-01, 2.28670403e-01, 4.14053835e-02, 0.,
          1.53739881e-02, 0., 5.29604731e-03, 1.63969219e-01,
          1.35140076e-01, 1.92589000e-01, 9.94046554e-02, 1.14089645e-01,
          4.57229000e-03, 6.20874017e-03, 1.65505297e-02, 2.31748104e-01,
          1.16017267e-01, 6.20874017e-03, 0., 0., 9.20954272e-02,
          1.09110005e-01, 1.90036759e-01, 1.83030650e-01, 1.16025798e-01,
          3.05767450e-03, 0., 0., 0., 5.45124151e-02, 2.34480992e-01,
          2.76137948e-01, 0., 4.32420475e-03, 0., 0., 0., 2.29106713e-02,
          1.98823422e-01, 2.96668112e-01, 1.16188094e-01, 5.29604731e-03,
          0., 0., 4.99600321e-02, 1.33115783e-01, 2.08496213e-01,
          2.01036990e-01, 1.55728012e-01, 2.04405993e-01, 1.20060958e-01,
          9.31399390e-02, 0., 0., 1.84218790e-02, 2.31201395e-01,
          1.94275096e-01, 2.29087397e-01, 4.20622341e-02, 1.29019711e-02,
          6.29809732e-03, 5.43739973e-03, 0., 1.29504979e-01 ]
      - [ 1.88613415e-01, 2.17806622e-01, 1.35315523e-01, 1.85961604e-01,
          0., 0., 0., 1.68040246e-01, 1.47791848e-01, 9.88710746e-02,
          1.04899012e-01, 1.18128926e-01, 0., 0., 6.28402922e-03,
          1.68789327e-01, 9.43481550e-02, 3.14201461e-03, 0., 0.,
          1.06659487e-01, 8.15062225e-02, 1.29150659e-01, 2.48859629e-01,
          0., 1.51322596e-02, 0., 0., 1.09470665e-01, 1.41773880e-01,
          2.24399805e-01, 2.60376453e-01, 0., 0., 0., 0., 1.04661718e-01,
          2.13093907e-01, 1.82188034e-01, 2.59052604e-01, 6.61055446e-02,
          5.44212898e-03, 0., 0., 0., 1.17418073e-01, 2.05794409e-01,
          1.57603517e-01, 1.58171058e-01, 2.05428585e-01, 9.85579565e-02,
          6.86548874e-02, 8.35508201e-03, 0., 7.69633241e-03,
          2.06185833e-01, 1.95453763e-01, 2.25340992e-01, 1.14119425e-01,
          7.79494867e-02, 7.91403353e-02, 0., 0., 1.18627846e-01 ]
      - [ 3.19971502e-01, 1.98234811e-01, 2.08493136e-02, 0., 0., 0., 0.,
          0., 2.01692551e-01, 2.08922446e-01, 1.10870570e-01,
          9.20602158e-02, 3.64882033e-03, 0., 0., 0., 2.60202736e-01,
          1.22731198e-02, 0., 4.58814856e-03, 9.34558064e-02,
          1.19836621e-01, 2.04980627e-01, 1.66422978e-01, 1.16673365e-01,
          0., 6.92848535e-03, 0., 1.17898723e-02, 4.26989570e-02,
          2.29448259e-01, 1.57119423e-01, 2.32171565e-01, 1.11385286e-02,
          0., 8.23940430e-03, 1.41474968e-02, 4.20128852e-02,
          2.28839785e-01, 1.58382371e-01, 2.60077685e-01, 8.17512069e-03,
          0., 0., 9.32258442e-02, 1.19997375e-01, 1.32000804e-01,
          9.17405263e-02, 2.43481278e-01, 1.36638820e-01, 1.09681822e-01,
          9.25733820e-02, 0., 0., 0., 0., 2.88172275e-01, 2.40662858e-01,
          8.49240050e-02, 0., 0., 0., 0., 4.75057103e-02 ]
      - [ 2.68945575e-01, 2.08579153e-01, 1.38381764e-01, 1.46755442e-01,
          9.53091606e-02, 2.18978226e-02, 0., 1.17038250e-01,
          1.57493353e-01, 1.61918819e-01, 1.02982461e-01, 1.13069177e-01,
          3.07372194e-02, 0., 3.08912573e-03, 1.63513273e-02,
          1.29156604e-01, 5.49332844e-03, 0., 1.16380148e-01,
          4.48256657e-02, 7.17568249e-02, 1.77079260e-01, 2.29479447e-01,
          1.03905387e-02, 3.08912573e-03, 0., 6.08686171e-02,
          6.19874038e-02, 1.65427834e-01, 1.87666163e-01, 2.66645312e-01,
          1.16169760e-02, 4.36868332e-03, 2.12637410e-02, 7.85437748e-02,
          1.24488510e-01, 1.53014883e-01, 2.13030770e-01, 2.49202341e-01,
          6.61842600e-02, 6.30232971e-03, 0., 0., 7.23307431e-02,
          1.10212266e-01, 1.27242804e-01, 2.13040277e-01, 1.33904234e-01,
          1.00929171e-01, 1.29104957e-01, 7.88366720e-02, 0., 0.,
          3.08912573e-03, 1.19827420e-01, 2.66793311e-01, 2.02464044e-01,
          1.46233857e-01, 6.15826845e-02, 0., 0., 0., 2.06247896e-01 ]
      - [ 2.58561939e-01, 1.62038416e-01, 1.46210670e-01, 1.19330168e-01,
          4.37028855e-02, 0., 5.41184517e-03, 1.15441397e-01,
          1.58797503e-01, 1.70480758e-01, 1.20938830e-01, 1.14621513e-01,
          0., 0., 8.60776380e-03, 1.63114086e-01, 1.83240876e-01,
          7.55467825e-03, 0., 0., 1.15311950e-01, 9.08228680e-02,
          2.01551452e-01, 1.84144318e-01, 5.90911061e-02, 1.06579557e-01,
          0., 0., 7.88221881e-03, 4.93548140e-02, 2.30486378e-01,
          2.34925672e-01, 0., 0., 0., 0., 1.15572296e-01, 1.19130947e-01,
          1.88346788e-01, 2.84536391e-01, 1.07360415e-01, 6.87208725e-03,
          0., 0., 9.69688445e-02, 1.06708415e-01, 1.42154738e-01,
          2.19868109e-01, 2.16115132e-01, 1.77392289e-01, 1.05259784e-01,
          5.01493439e-02, 5.77871362e-03, 0., 8.60776380e-03,
          1.99867740e-01, 2.36190930e-01, 1.64663166e-01, 1.46962091e-01,
          7.56454840e-02, 0., 0., 8.09259526e-03, 6.99966028e-02 ]
      - [ 3.06417942e-01, 1.79753572e-01, 9.01299492e-02, 1.09304495e-01,
          7.49179497e-02, 2.18127593e-02, 0., 0., 1.55925393e-01,
          2.26984382e-01, 9.80948508e-02, 0., 0., 0., 0., 2.62448620e-02,
          2.26559132e-01, 6.33572042e-03, 0., 0., 3.29183675e-02,
          1.12391129e-01, 1.91924214e-01, 1.65877521e-01, 1.16289444e-01,
          0., 6.30583614e-03, 0., 5.55994697e-02, 1.67674959e-01,
          1.96814910e-01, 1.75681069e-01, 0., 0., 1.88588500e-02, 0.,
          1.36273265e-01, 1.28134161e-01, 2.17343882e-01, 1.71826690e-01,
          2.19942391e-01, 2.03668848e-02, 0., 1.14627667e-01,
          9.77095496e-03, 1.22947581e-01, 1.61713019e-01, 2.12848932e-01,
          2.17710510e-01, 1.73287421e-01, 1.14610530e-01, 1.14645101e-01,
          0., 0., 4.39182948e-03, 2.07286291e-02, 2.77165532e-01,
          2.21117228e-01, 1.34793893e-01, 7.88978338e-02, 5.21666370e-02,
          0., 0., 0. ]
      - [ 1.66481465e-01, 2.26298451e-01, 1.33308783e-01, 1.37505487e-01,
          0., 0., 1.39138391e-02, 0., 1.96668252e-01, 1.76507533e-01,
          1.06428772e-01, 9.39343795e-02, 1.53312739e-02, 0.,
          7.28449831e-03, 2.02194959e-01, 8.68273005e-02, 2.13652309e-02,
          0., 0., 5.87060042e-02, 1.28636912e-01, 2.12405860e-01,
          1.58105031e-01, 1.47082806e-02, 0., 6.37400476e-03, 0.,
          1.12297110e-01, 1.84968129e-01, 1.76980734e-01, 2.70607978e-01,
          0., 0., 9.95131582e-03, 0., 1.37012914e-01, 1.37637958e-01,
          2.35970885e-01, 2.41459817e-01, 8.76856074e-02, 3.13906395e-03,
          0., 0., 9.41012800e-02, 1.05527893e-01, 1.22302577e-01,
          2.36504942e-01, 1.25060961e-01, 1.23214640e-01, 9.60003063e-02,
          1.10087730e-01, 0., 0., 7.01916032e-03, 1.99250296e-01,
          1.82315677e-01, 2.23308861e-01, 1.37947097e-01, 1.07785322e-01,
          7.82876089e-02, 0., 0., 2.02825725e-01 ]
      - [ 2.38018841e-01, 2.23128989e-01, 1.71179160e-01, 0.,
          5.75034507e-02, 6.67932332e-02, 0., 2.02315435e-01,
          1.22940108e-01, 1.28173515e-01, 1.17104389e-01, 0.,
          1.17442749e-01, 1.31022334e-01, 0., 1.42914087e-01,
          1.04519367e-01, 7.94088691e-02, 9.90566015e-02, 3.85998376e-02,
          1.16048992e-01, 9.90720689e-02, 1.14475347e-01, 2.51446009e-01,
          1.47444550e-02, 0., 0., 5.22180796e-02, 1.17333017e-01,
          1.55472130e-01, 2.04669654e-01, 2.57358313e-01, 0., 0., 0., 0.,
          1.18641555e-01, 9.40644667e-02, 2.31782496e-01, 1.99829504e-01,
          1.81812033e-01, 4.84622642e-02, 0., 0., 0., 1.02880083e-01,
          1.44945934e-01, 1.92833230e-01, 1.63736880e-01, 1.75711975e-01,
          6.00518733e-02, 0., 5.88568579e-03, 0., 5.36873378e-03,
          2.29588106e-01, 1.91233277e-01, 2.03841895e-01, 1.10663295e-01,
          5.82744144e-02, 0., 0., 0., 1.14794306e-01 ]
      - [ 2.21247926e-01, 2.05082104e-01, 1.91697016e-01, 4.28868383e-02,
          6.35965355e-03, 0., 0., 1.83322817e-01, 1.33963704e-01,
          1.06943540e-01, 1.25472993e-01, 1.21825948e-01, 2.95001101e-02,
          1.47440294e-02, 0., 1.67528555e-01, 1.59332052e-01, 0., 0.,
          1.16619378e-01, 9.55711454e-02, 1.06021971e-01, 4.90659177e-02,
          2.52248585e-01, 0., 1.69159565e-02, 0., 0., 1.27236456e-01,
          1.58799753e-01, 1.70417532e-01, 2.58042336e-01, 8.21027812e-03,
          0., 0., 0., 0., 1.70820773e-01, 2.44663328e-01, 2.03019798e-01,
          1.27998292e-01, 1.04868799e-01, 0., 4.61697858e-03,
          9.18054879e-02, 9.99802724e-02, 1.64891452e-01, 1.99515596e-01,
          1.51474640e-01, 1.66454077e-01, 9.44298208e-02, 1.03942864e-01,
          0., 0., 0., 1.39238641e-01, 2.51133263e-01, 2.01303318e-01,
          1.75540492e-01, 0., 0., 0., 0., 1.32677466e-01 ]
      - [ 2.26659849e-01, 2.40685895e-01, 5.11808172e-02, 0.,
          3.62693751e-03, 0., 0., 2.09801793e-01, 1.32600859e-01,
          1.31226167e-01, 1.17970161e-01, 9.39093977e-02, 3.62693751e-03,
          0., 5.42353699e-03, 1.82401672e-01, 1.15778305e-01, 0., 0., 0.,
          9.26367864e-02, 1.10028438e-01, 1.36055306e-01, 2.46849746e-01,
          6.28204038e-03, 3.04987887e-03, 0., 0., 0., 1.13305658e-01,
          2.10033223e-01, 2.76635647e-01, 3.62693751e-03, 3.04987887e-03,
          0., 0., 3.62693751e-03, 4.85213101e-02, 1.90687001e-01,
          2.73538679e-01, 1.63661927e-01, 8.11007898e-03, 0., 0.,
          1.46847293e-01, 3.80874947e-02, 1.86458662e-01, 2.31702670e-01,
          9.63587835e-02, 1.71068236e-01, 1.44161656e-01, 9.29685459e-02,
          6.28204038e-03, 0., 1.40172066e-02, 2.58552045e-01,
          1.93847463e-01, 1.49106801e-01, 1.39149114e-01, 0., 0., 0.,
          6.81973621e-03, 1.99887142e-01 ]
      - [ 2.34325066e-01, 1.75372675e-01, 1.87226072e-01, 1.37507170e-01,
          0., 0., 0., 0., 1.74172521e-01, 1.88175932e-01, 1.02849066e-01,
          6.83651045e-02, 0., 0., 4.39396966e-03, 1.66676253e-01,
          1.97463840e-01, 3.14445756e-02, 0., 0., 0., 1.61385447e-01,
          1.51711389e-01, 2.29460120e-01, 1.69320367e-02, 0., 0.,
          5.08888178e-02, 5.42259030e-02, 1.93333119e-01, 1.17208496e-01,
          2.41797358e-01, 5.22533990e-03, 0., 0., 0., 1.03407219e-01,
          2.14677677e-01, 2.12786794e-01, 2.27415845e-01, 8.13711435e-02,
          7.81370513e-03, 0., 1.84817519e-02, 6.64891005e-02,
          1.13598488e-01, 1.36994466e-01, 2.09772915e-01, 2.30380833e-01,
          1.14944369e-01, 7.10479543e-02, 1.22201055e-01, 3.69487330e-03,
          0., 0., 1.70877323e-01, 2.06847429e-01, 2.42538750e-01,
          1.34164333e-01, 5.58195934e-02, 0., 0., 0., 1.23898625e-01 ]
      - [ 2.46292397e-01, 2.24974915e-01, 1.69338316e-01, 1.00626677e-01,
          1.89226791e-02, 9.72364470e-02, 0., 1.17034964e-01,
          1.57144949e-01, 1.68159217e-01, 1.03182472e-01, 1.17758527e-01,
          0., 0., 4.36787168e-03, 8.41297060e-02, 1.04080684e-01,
          3.08855157e-03, 4.06649709e-02, 1.11820661e-01, 5.86463092e-03,
          1.33145094e-01, 1.10809855e-01, 2.57110655e-01, 1.46917105e-02,
          8.26571509e-03, 5.49230771e-03, 7.52358064e-02, 5.44360615e-02,
          1.33759260e-01, 1.92064404e-01, 2.78663903e-01, 8.99679866e-03,
          0., 2.24689692e-02, 7.82609358e-02, 1.26216412e-01,
          1.45286039e-01, 2.16783911e-01, 2.47633830e-01, 6.30398020e-02,
          3.08855157e-03, 0., 0., 1.51830167e-02, 1.06675565e-01,
          1.79461241e-01, 1.79403514e-01, 1.63678452e-01, 1.57830402e-01,
          1.05451100e-01, 2.30012499e-02, 6.53149141e-03, 0.,
          6.27143728e-03, 4.49967422e-02, 2.93287992e-01, 2.02436209e-01,
          1.33028477e-01, 9.73175690e-02, 5.86463092e-03, 1.48747759e-02,
          0., 1.65478215e-01 ]
      - [ 2.30552807e-01, 2.81425714e-01, 8.64877403e-02, 1.30452886e-01,
          3.43525186e-02, 0., 0., 2.56741289e-02, 2.02069595e-01,
          1.47344768e-01, 1.35454401e-01, 8.55425820e-02, 0., 0.,
          4.39501973e-03, 0., 1.20054722e-01, 1.20893987e-02, 0., 0.,
          9.89355147e-02, 1.07671373e-01, 1.68824673e-01, 1.74182490e-01,
          1.19743198e-01, 0., 0., 7.65924975e-02, 8.32858235e-02,
          2.07848832e-01, 1.44554093e-01, 2.66772807e-01, 1.92976221e-01,
          0., 0., 3.38880233e-02, 1.30387306e-01, 8.90965164e-02,
          2.51304746e-01, 1.80325925e-01, 1.82704479e-01, 8.22232943e-03,
          0., 0., 1.12507179e-01, 1.25554636e-01, 9.12065729e-02,
          1.24395065e-01, 2.29607761e-01, 1.24712497e-01, 1.10853352e-01,
          9.76467803e-02, 0., 0., 3.10774823e-03, 1.17221117e-01,
          2.55264759e-01, 2.03279495e-01, 1.37600288e-01, 1.33120015e-01,
          2.13441253e-02, 0., 0., 6.15655854e-02 ]
      - [ 1.80670574e-01, 2.43798524e-01, 1.05694935e-01, 8.19748789e-02,
          2.24143527e-02, 0., 0., 1.15641266e-01, 1.91375196e-01,
          1.69873998e-01, 8.92892703e-02, 1.06183119e-01, 8.13160092e-02,
          8.87941718e-02, 2.70338040e-02, 2.00105339e-01, 1.16011716e-01,
          1.26375854e-02, 7.47069493e-02, 9.41503718e-02, 1.24076568e-01,
          8.08914825e-02, 1.83462009e-01, 1.98721781e-01, 1.13475509e-01,
          3.76676172e-02, 0., 0., 0., 1.14159904e-01, 2.02848300e-01,
          2.78953314e-01, 0., 0., 0., 0., 4.69595119e-02, 2.16772869e-01,
          1.09265275e-01, 2.75579840e-01, 1.11605324e-01, 0., 0., 0., 0.,
          6.34975955e-02, 1.87328413e-01, 2.08285794e-01, 1.90270364e-01,
          1.78061947e-01, 9.18064415e-02, 1.39167197e-02, 0., 0.,
          3.06506455e-03, 2.29517758e-01, 1.93108439e-01, 2.32376069e-01,
          1.81368664e-02, 1.23666218e-02, 1.59862861e-02, 0., 0.,
          1.15872368e-01 ]
      - [ 2.80395448e-01, 2.21710518e-01, 1.57146901e-01, 5.17779253e-02,
          0., 0., 0., 0., 2.24038839e-01, 1.50748447e-01, 8.04731548e-02,
          1.25233039e-01, 4.62227641e-03, 0., 6.99648727e-03,
          6.53688610e-03, 1.77784085e-01, 1.60535686e-02, 0.,
          7.25555420e-02, 1.11492045e-01, 7.98063204e-02, 8.88045803e-02,
          2.35987037e-01, 2.23599989e-02, 5.35394670e-03, 0.,
          9.79319438e-02, 1.03785478e-01, 2.13512436e-01, 1.12871058e-01,
          2.21856803e-01, 1.01662287e-02, 0., 6.98002148e-03, 0.,
          6.71050400e-02, 1.65170833e-01, 2.09555596e-01, 1.40438676e-01,
          2.44094625e-01, 1.07078934e-02, 0., 2.28173900e-02,
          1.27114117e-01, 8.42887685e-02, 1.55005291e-01, 2.20953554e-01,
          2.17605799e-01, 1.48179337e-01, 6.38561621e-02, 1.13056660e-01,
          0., 1.63251925e-02, 5.35394670e-03, 4.62227641e-03,
          2.60264456e-01, 2.11604878e-01, 1.26963019e-01, 1.49677038e-01,
          1.09948598e-01, 0., 1.41732348e-02, 0. ]
      - [ 2.61131227e-01, 2.49052480e-01, 8.37157890e-02, 0.,
          5.46961501e-02, 0., 0., 1.44796267e-01, 1.84525311e-01,
          1.38819560e-01, 1.32491618e-01, 0., 0., 0., 5.40111959e-03,
          1.19932018e-01, 6.79751709e-02, 3.11833783e-03, 1.00758057e-02,
          0., 0., 1.09708063e-01, 1.80669501e-01, 1.35626122e-01,
          1.20965198e-01, 0., 0., 2.04372406e-02, 1.67068958e-01,
          1.43075749e-01, 1.77760318e-01, 2.70402789e-01, 5.92119014e-03,
          0., 0., 0., 7.94252083e-02, 1.46976292e-01, 2.05475897e-01,
          2.76116401e-01, 1.03634939e-01, 3.11833783e-03, 0., 0.,
          1.17581122e-01, 4.00705785e-02, 1.80815011e-01, 2.31624797e-01,
          1.96451068e-01, 1.27212584e-01, 1.12989023e-01, 1.30808920e-01,
          3.20112631e-02, 1.02338176e-02, 9.35501326e-03, 1.02661029e-02,
          2.71519512e-01, 1.91661745e-01, 1.35499746e-01, 1.92781135e-01,
          2.12446060e-02, 0., 0., 7.89724812e-02 ]
      - [ 2.86036462e-01, 2.08687827e-01, 8.89677331e-02, 1.14142574e-01,
          1.17767490e-01, 0., 0., 8.60944949e-03, 1.94077671e-01,
          1.64592803e-01, 1.46651894e-01, 1.15364999e-01, 0., 0., 0.,
          1.01435501e-02, 2.54944563e-01, 2.22318657e-02, 3.64479981e-02,
          1.10853471e-01, 1.00231588e-01, 9.15918723e-02, 1.75623611e-01,
          1.54631734e-01, 1.65357783e-01, 0., 0., 4.31653149e-02,
          6.52484894e-02, 7.87726045e-02, 2.14938328e-01, 1.61994517e-01,
          2.01675236e-01, 0., 1.74649768e-02, 2.73858383e-02,
          1.18904486e-01, 1.35181636e-01, 2.12367341e-01, 2.01836482e-01,
          1.84811562e-01, 0., 0., 0., 0., 1.19694240e-01, 1.27984032e-01,
          1.01783708e-01, 2.51644105e-01, 1.16037749e-01, 1.07641868e-01,
          0., 8.77981912e-03, 0., 7.78446859e-03, 7.44576892e-03,
          2.96858847e-01, 1.86763182e-01, 1.47767216e-01, 8.29262733e-02,
          8.27263296e-03, 0., 5.47826337e-03, 8.74724425e-03 ]
      - [ 2.87755489e-01, 1.96153536e-01, 1.85134202e-01, 7.95032158e-02,
          0., 0., 0., 0., 1.95105657e-01, 1.78126484e-01, 1.10900566e-01,
          9.72809866e-02, 6.40446367e-03, 0., 9.00368765e-03,
          6.95263827e-03, 1.03864312e-01, 6.21862849e-03, 0.,
          1.17653022e-02, 9.65301916e-02, 9.29374322e-02, 1.78035498e-01,
          1.52472451e-01, 1.16456091e-01, 1.67887881e-02, 0.,
          1.54714044e-02, 8.43935981e-02, 1.17066279e-01, 2.47689381e-01,
          2.44332075e-01, 2.04280943e-01, 1.46579519e-02, 1.40422909e-02,
          3.43290083e-02, 0., 4.54177260e-02, 2.69320279e-01,
          1.78013846e-01, 2.17338786e-01, 1.43352039e-02, 0., 0.,
          1.26121253e-01, 1.26958519e-01, 1.11689582e-01, 1.03080869e-01,
          2.40138739e-01, 8.32733139e-02, 9.74213257e-02, 1.36051968e-01,
          5.11024594e-02, 5.52922953e-03, 6.21862849e-03, 9.55146924e-03,
          2.94963419e-01, 1.79434627e-01, 1.62708580e-01, 1.15432844e-01,
          5.22922259e-03, 0., 0., 0. ]
      - [ 2.25474939e-01, 2.29998603e-01, 4.65483516e-02, 4.56100004e-03,
          0., 7.07810652e-03, 4.31352761e-03, 1.99788004e-01,
          1.46461174e-01, 1.03363521e-01, 1.17113665e-01, 0.,
          1.15661606e-01, 0., 9.15037375e-03, 2.00366586e-01,
          2.31377676e-01, 4.31352761e-03, 8.91734753e-03, 0.,
          9.32247937e-02, 1.17575705e-01, 1.30991861e-01, 1.74477473e-01,
          1.75837636e-01, 0., 0., 0., 7.75088072e-02, 8.66631418e-02,
          1.61769003e-01, 2.31299192e-01, 5.76946251e-02, 0., 0.,
          6.45022839e-03, 0., 4.91374247e-02, 2.31511682e-01,
          2.52379388e-01, 1.63852096e-01, 0., 0., 5.79166505e-03,
          1.06224634e-01, 1.28951773e-01, 1.76434547e-01, 1.92481980e-01,
          1.92948624e-01, 1.83864325e-01, 4.92342450e-02, 9.33337808e-02,
          1.15571223e-01, 8.76681227e-03, 1.01904646e-02, 1.83176607e-01,
          2.43638366e-01, 1.87041402e-01, 1.42561302e-01, 6.82028616e-03,
          7.36524677e-03, 0., 0., 1.29213944e-01 ]
      - [ 2.98123181e-01, 1.39622748e-01, 1.91542372e-01, 1.20126568e-01,
          0., 0., 0., 4.64615319e-03, 1.91243872e-01, 2.03543454e-01,
          9.69960019e-02, 5.33584729e-02, 9.34226811e-02, 3.20503563e-02,
          4.39406047e-03, 8.83068796e-03, 2.13848919e-01, 1.96109414e-02,
          2.42063086e-02, 4.92513999e-02, 1.22515373e-01, 1.29498735e-01,
          1.22539647e-01, 2.04638228e-01, 1.11344621e-01, 0., 0.,
          1.97280440e-02, 9.81606171e-02, 1.29968464e-01, 2.16824204e-01,
          1.87352508e-01, 2.16203585e-01, 1.98444631e-02, 1.98949557e-02,
          0., 5.65888397e-02, 1.39397472e-01, 2.05975264e-01,
          2.11237922e-01, 1.98037103e-01, 2.11967751e-02, 0., 0., 0.,
          1.39083952e-01, 8.63176063e-02, 1.07945576e-01, 1.13524787e-01,
          1.90526888e-01, 1.10709824e-01, 2.90199853e-02, 8.68327357e-03,
          0., 7.05946377e-03, 9.11465846e-03, 2.84632266e-01,
          2.20076665e-01, 1.52871683e-01, 2.66964361e-02, 0., 0.,
          1.27560228e-01, 1.16268963e-01 ]
      - [ 2.44035065e-01, 2.23564863e-01, 1.76188201e-01, 1.01075575e-01,
          1.08969010e-01, 0., 2.13878304e-02, 0., 2.18049392e-01,
          1.27215296e-01, 8.42440352e-02, 1.06801555e-01, 0., 0., 0.,
          7.56517937e-03, 2.31854782e-01, 7.08466396e-03, 0., 0.,
          1.11520894e-01, 8.75945017e-02, 1.09849632e-01, 1.61599398e-01,
          2.08557352e-01, 0., 0., 0., 8.63185227e-02, 1.12209693e-01,
          2.36143515e-01, 1.60848975e-01, 0., 0., 1.62419099e-02, 0.,
          1.39113486e-01, 1.30329236e-01, 2.38389388e-01, 1.78445145e-01,
          1.81435540e-01, 0., 0., 0., 0., 1.23392813e-01, 1.58720657e-01,
          2.04148680e-01, 1.60622284e-01, 2.09830746e-01, 1.28454059e-01,
          0., 0., 0., 7.66704883e-03, 1.02943536e-02, 3.03612888e-01,
          1.94759801e-01, 1.37277812e-01, 6.11969866e-02, 5.95012270e-02,
          0., 1.01136807e-02, 1.19106703e-01 ]
      - [ 1.66766480e-01, 2.22596243e-01, 1.58469513e-01, 1.12761229e-01,
          0., 0., 1.40927695e-02, 1.10156164e-01, 1.14763968e-01,
          2.11941347e-01, 1.05718896e-01, 9.39036906e-02, 0., 0.,
          5.42782899e-03, 2.01792434e-01, 1.72578275e-01, 1.90619100e-02,
          0., 0., 5.80013581e-02, 1.28265634e-01, 2.12275416e-01,
          1.07963040e-01, 1.16634406e-01, 1.68758072e-02, 0., 0.,
          1.13640271e-01, 1.86463237e-01, 1.86079651e-01, 2.15420350e-01,
          1.14064977e-01, 0., 0., 0., 1.36155799e-01, 1.38611361e-01,
          2.35388234e-01, 2.11067900e-01, 1.45152271e-01, 0., 0., 0.,
          9.60356295e-02, 1.05379462e-01, 1.22665673e-01, 2.08273351e-01,
          8.23656544e-02, 1.93721786e-01, 9.92864892e-02, 1.10754289e-01,
          0., 0., 7.00729713e-03, 1.65965855e-01, 2.09383100e-01,
          2.25796759e-01, 1.31184384e-01, 1.09521523e-01, 8.03369358e-02,
          0., 1.24650165e-01, 1.17344983e-01 ]
      - [ 2.92799443e-01, 2.06671014e-01, 8.66846517e-02, 1.01432905e-01,
          1.03084669e-01, 0., 1.65095106e-02, 6.91987015e-03,
          2.26037681e-01, 1.69267893e-01, 6.19465187e-02, 9.72581655e-02,
          1.12429358e-01, 2.61368323e-02, 6.91987015e-03, 9.25519224e-03,
          2.54042923e-01, 1.16422363e-02, 2.01628376e-02, 1.12801641e-01,
          0., 1.16272584e-01, 2.02839121e-01, 1.58870518e-01,
          1.08386666e-01, 0., 1.47779360e-02, 5.59508353e-02,
          8.20168853e-02, 8.91136676e-02, 2.31921002e-01, 1.36493206e-01,
          2.02744886e-01, 1.82519518e-02, 0., 0., 1.10673882e-01,
          1.01082064e-01, 2.31017172e-01, 1.67631850e-01, 2.20990956e-01,
          7.68216420e-03, 0., 0., 0., 1.01945169e-01, 1.27095580e-01,
          1.28520936e-01, 2.51213968e-01, 1.10730186e-01, 9.82732177e-02,
          2.05936041e-02, 0., 0., 9.40951798e-03, 9.51182470e-03,
          2.75695920e-01, 2.04817221e-01, 1.78311288e-01, 6.08314127e-02,
          0., 0., 0., 0. ]
      - [ 2.48824120e-01, 1.66983530e-01, 1.38052151e-01, 1.34178400e-01,
          0., 0., 0., 2.03648061e-01, 1.36750266e-01, 9.02081504e-02,
          1.29312590e-01, 6.17741980e-02, 0., 0., 0., 1.66027680e-01,
          8.43575150e-02, 3.12102307e-03, 0., 0., 5.86090647e-02,
          1.25512555e-01, 1.05001196e-01, 2.29386598e-01, 4.78361100e-02,
          0., 0., 0., 8.25624540e-02, 1.97264820e-01, 1.69689149e-01,
          2.74253130e-01, 5.26202023e-02, 0., 0., 7.56556615e-02,
          1.33256510e-01, 8.97009745e-02, 1.99751675e-01, 2.76249737e-01,
          8.65673125e-02, 4.41379333e-03, 8.42104480e-03, 6.88430816e-02,
          1.07420109e-01, 9.11150724e-02, 1.87652946e-01, 1.91926464e-01,
          1.28460199e-01, 1.78435564e-01, 8.29119682e-02, 6.46962672e-02,
          1.10547483e-01, 0., 1.03512630e-02, 2.28219628e-01,
          1.63838267e-01, 1.57149777e-01, 2.10226178e-01, 1.15109280e-01,
          0., 0., 0., 1.64982185e-01 ]
      - [ 3.08798283e-01, 1.92146853e-01, 1.20409451e-01, 7.72253424e-02,
          0., 8.27312283e-03, 6.25329372e-03, 9.55059305e-02,
          2.33444199e-01, 5.60386367e-02, 1.04723535e-01, 1.51603311e-01,
          0., 0., 6.13018079e-03, 4.58337925e-03, 2.02087983e-01,
          1.34519748e-02, 0., 9.87898558e-02, 1.25142798e-01,
          9.31739062e-02, 5.12616411e-02, 1.54140577e-01, 2.01109394e-01,
          6.25329372e-03, 0., 1.29339006e-02, 9.80546698e-02,
          1.65390089e-01, 1.63859725e-01, 2.25777835e-01, 1.42499760e-01,
          5.45058725e-03, 0., 5.82008250e-03, 7.60429054e-02,
          1.49841040e-01, 1.65787220e-01, 2.06822380e-01, 2.32921407e-01,
          8.66938476e-03, 0., 0., 9.86847952e-02, 1.11429200e-01,
          1.65526733e-01, 1.48632422e-01, 1.83128476e-01, 1.64244235e-01,
          1.12541445e-01, 9.80612338e-02, 5.82008250e-03, 0.,
          8.80177971e-03, 1.42393649e-01, 2.63894618e-01, 2.07619935e-01,
          1.18826590e-01, 7.74720013e-02, 0., 0., 0., 9.24304053e-02 ]
      - [ 3.19889009e-01, 1.52201697e-01, 1.54803753e-01, 9.10818204e-02,
          0., 0., 1.87784079e-02, 2.12601516e-02, 2.58496672e-01,
          6.35284856e-02, 8.59202221e-02, 1.14583470e-01, 6.38554543e-02,
          0., 0., 4.67090914e-03, 1.71543673e-01, 0., 0., 0.,
          1.36295587e-01, 9.28814858e-02, 7.00910240e-02, 1.10885844e-01,
          2.07715839e-01, 0., 0., 0., 1.19512238e-01, 1.73172727e-01,
          1.87128171e-01, 2.26903096e-01, 0., 1.32931350e-02, 0., 0.,
          5.04894331e-02, 1.72909722e-01, 1.97276399e-01, 1.78861111e-01,
          2.32113391e-01, 1.18540470e-02, 0., 0., 1.26546666e-01,
          8.02382529e-02, 1.30320385e-01, 2.37061098e-01, 1.72829807e-01,
          1.93788037e-01, 7.86533728e-02, 1.05604917e-01, 2.58715190e-02,
          0., 1.23228552e-02, 2.54236776e-02, 2.69418031e-01,
          2.06254378e-01, 1.76047280e-01, 1.12609632e-01, 0., 0., 0., 0. ]
      - [ 2.09497809e-01, 2.35439837e-01, 7.87600502e-02, 1.02626786e-01,
          1.78246703e-02, 0., 1.09852776e-02, 1.18887782e-01,
          2.11962417e-01, 1.15400687e-01, 8.14201608e-02, 1.61285356e-01,
          6.65332302e-02, 0., 1.36793768e-02, 2.04967469e-01,
          6.59251213e-02, 0., 9.90942270e-02, 7.18437582e-02,
          1.08190827e-01, 8.13308507e-02, 1.05304144e-01, 2.09438190e-01,
          1.29236758e-01, 0., 8.18949267e-02, 6.78460151e-02,
          1.96962461e-01, 9.60060135e-02, 1.97811812e-01, 2.68339753e-01,
          1.63804963e-01, 4.07497846e-02, 0., 8.61976016e-03,
          5.98253421e-02, 1.40393510e-01, 2.21458450e-01, 2.48516068e-01,
          1.32007122e-01, 6.34235283e-03, 0., 0., 5.10794930e-02,
          8.72286335e-02, 9.88947526e-02, 1.81474015e-01, 1.80989280e-01,
          1.27126917e-01, 5.70686758e-02, 0., 0., 0., 0., 1.67504475e-01,
          2.29068935e-01, 1.17391057e-01, 1.98679134e-01, 1.34649590e-01,
          4.67068609e-03, 2.07534898e-02, 0., 1.20406017e-01 ]
      - [ 3.09405655e-01, 1.80865571e-01, 8.56457651e-02, 1.01371907e-01,
          1.05658144e-01, 0., 2.70917155e-02, 1.16825290e-01,
          1.06674559e-01, 2.30188668e-01, 1.02734946e-01, 9.13132075e-03,
          1.14181288e-01, 0., 0., 3.92862558e-02, 2.26640657e-01,
          1.61898229e-02, 2.57849060e-02, 1.13337807e-01, 0.,
          1.15425684e-01, 1.55727625e-01, 2.29609236e-01, 2.36698091e-02,
          1.47587135e-02, 0., 1.50357597e-02, 1.05830029e-01,
          1.15141131e-01, 2.31391728e-01, 1.58816338e-01, 1.53057545e-01,
          1.95221677e-02, 0., 0., 1.11340173e-01, 1.01228699e-01,
          2.23789707e-01, 1.80180237e-01, 2.22226039e-01, 1.12951286e-02,
          0., 0., 0., 1.03882633e-01, 1.27530769e-01, 1.85025930e-01,
          9.29278433e-02, 1.98092401e-01, 1.08918168e-01, 0., 0., 0.,
          3.11333360e-03, 8.06359667e-03, 2.74982035e-01, 2.18694389e-01,
          1.39089629e-01, 8.80786031e-02, 3.70239839e-03, 0.,
          8.60004798e-02, 1.46913052e-01 ]
      - [ 2.38912180e-01, 2.54831046e-01, 8.21718648e-02, 1.12766266e-01,
          7.92786181e-02, 0., 4.40525403e-03, 8.09893459e-02,
          1.98205024e-01, 1.31039530e-01, 1.12206206e-01, 1.41514808e-01,
          4.65798890e-03, 0., 0., 1.18318938e-01, 1.66914880e-01, 0., 0.,
          6.96531823e-03, 1.40092179e-01, 9.56320018e-02, 1.40375718e-01,
          2.13787183e-01, 5.30383959e-02, 0., 9.55209807e-02, 0.,
          1.00270234e-01, 1.95286259e-01, 2.14576304e-01, 1.94408581e-01,
          1.45251974e-01, 0., 0., 0., 7.95393363e-02, 1.88270077e-01,
          1.90525457e-01, 2.52665877e-01, 1.20719023e-01, 5.39531233e-03,
          7.03395018e-03, 0., 8.01505297e-02, 1.10963106e-01,
          1.31508976e-01, 1.59517691e-01, 1.62274778e-01, 1.61511213e-01,
          1.07400768e-01, 2.79694740e-02, 0., 0., 7.03395018e-03, 0.,
          2.72094786e-01, 2.05456853e-01, 1.41800612e-01, 1.48267999e-01,
          0., 0., 2.21788622e-02, 1.17230415e-01 ]
      - [ 2.52725989e-01, 2.24757761e-01, 1.59099311e-01, 1.13376267e-01,
          8.33005086e-02, 0., 2.99428292e-02, 1.65994570e-01,
          1.19036913e-01, 1.63016930e-01, 1.17233276e-01, 1.15159243e-01,
          0., 0., 0., 2.35545933e-02, 1.88207582e-01, 0., 0., 0.,
          1.15337878e-01, 1.04979016e-01, 1.28247485e-01, 1.37648225e-01,
          1.95999026e-01, 2.69564465e-02, 1.73729062e-02, 0.,
          1.02884822e-01, 1.92521200e-01, 1.74454898e-01, 2.15639472e-01,
          1.17677428e-01, 0., 0., 2.59879995e-02, 1.45922497e-01,
          8.83584842e-02, 2.16076881e-01, 1.80001274e-01, 2.14421287e-01,
          2.32261587e-02, 0., 0., 0., 1.37800813e-01, 1.76124603e-01,
          1.48321554e-01, 2.11994782e-01, 1.61096230e-01, 1.04359001e-01,
          7.35872611e-02, 0., 0., 9.35836416e-03, 8.41590911e-02,
          2.84477592e-01, 1.35201216e-01, 1.88729525e-01, 9.57098529e-02,
          0., 0., 1.87527295e-02, 6.81043789e-02 ]
      - [ 3.32984954e-01, 2.07396463e-01, 1.88172251e-01, 4.02684920e-02,
          0., 0., 0., 1.08291559e-01, 2.21953422e-01, 1.68098211e-01,
          5.28031811e-02, 0., 0., 0., 6.63529802e-03, 1.48681000e-01,
          1.35178387e-01, 8.47775955e-03, 0., 0., 0., 0., 1.78201079e-01,
          2.18121529e-01, 4.14106660e-02, 0., 0., 0., 0., 2.28073910e-01,
          2.39785478e-01, 2.73689151e-01, 5.92008494e-02, 0.,
          6.92201331e-02, 0., 4.81260493e-02, 0., 5.76845333e-02,
          2.11302474e-01, 2.30511889e-01, 1.25304103e-01, 1.17976710e-01,
          1.12420700e-01, 1.66160613e-01, 8.43735933e-02, 5.84003814e-02,
          0., 6.70016259e-02, 5.73205724e-02, 1.24606647e-01,
          7.27195889e-02, 1.52026489e-01, 1.55880168e-01, 1.56952783e-01,
          1.87354743e-01, 1.72642186e-01, 8.33934546e-02, 1.04893237e-01,
          9.96949896e-02, 1.42924622e-01, 7.13576823e-02, 0., 0. ]
      - [ 2.41234601e-01, 2.27093235e-01, 4.66062725e-02, 4.56565851e-03,
          1.67031977e-02, 0., 1.26093207e-02, 1.90274209e-01,
          1.60464033e-01, 1.38710871e-01, 1.09139100e-01, 9.43925679e-02,
          5.31477071e-02, 1.05457261e-01, 4.05439399e-02, 1.83081239e-01,
          2.31811807e-01, 5.28836669e-03, 7.85462633e-02, 9.31879655e-02,
          9.36972797e-02, 1.11920342e-01, 1.35510370e-01, 1.79627389e-01,
          1.71623826e-01, 0., 0., 0., 8.24971870e-03, 5.39522991e-02,
          2.44609639e-01, 1.73133880e-01, 6.30989149e-02, 0., 0., 0.,
          3.63093475e-03, 0., 2.26851285e-01, 1.97131917e-01,
          2.31502905e-01, 7.71519681e-03, 0., 0., 0., 8.98178592e-02,
          2.02277809e-01, 1.89065099e-01, 1.93806052e-01, 1.86020225e-01,
          9.44860578e-02, 0., 0., 0., 8.76775011e-03, 1.63502038e-01,
          2.49155805e-01, 2.21689299e-01, 1.05449907e-01, 0.,
          6.84073288e-03, 0., 0., 1.03402346e-01 ]
      - [ 2.61265993e-01, 2.26781309e-01, 1.38576970e-01, 1.13457836e-01,
          8.44484568e-02, 0., 5.33861015e-03, 1.17053241e-02,
          2.31508344e-01, 1.15281828e-01, 1.19570144e-01, 9.94473845e-02,
          5.76067753e-02, 0., 0., 2.52629425e-02, 1.93096489e-01, 0., 0.,
          1.14650033e-01, 2.76085474e-02, 1.08869195e-01, 1.03729077e-01,
          1.64641961e-01, 1.89388543e-01, 1.58879831e-02, 1.67732611e-02,
          0., 8.51569772e-02, 1.71951979e-01, 1.41133860e-01,
          2.45833784e-01, 1.49927124e-01, 7.60182785e-03, 0.,
          3.94720957e-02, 1.45276248e-01, 1.11089930e-01, 2.14567423e-01,
          2.09681958e-01, 1.82571933e-01, 0., 0., 0., 0., 1.44726828e-01,
          1.71085089e-01, 1.24943011e-01, 2.22922772e-01, 1.36431366e-01,
          1.52113035e-01, 0., 7.44281663e-03, 0., 5.49306385e-02,
          1.57530233e-01, 2.14199245e-01, 2.24696651e-01, 1.45925000e-01,
          8.78455862e-02, 0., 0., 0., 0. ]
      - [ 2.50899613e-01, 1.66621059e-01, 1.64460063e-01, 1.11400433e-01,
          6.01408966e-02, 0., 0., 2.02344537e-01, 1.52083412e-01,
          1.12107083e-01, 9.81549546e-02, 2.76644845e-02, 1.12729296e-01,
          1.25956491e-01, 2.95400470e-02, 1.64996237e-01, 8.99098143e-02,
          4.12854552e-02, 5.38624264e-02, 9.93463621e-02, 9.96263772e-02,
          1.12528145e-01, 1.26042008e-01, 2.38312885e-01, 1.37328729e-02,
          0., 1.66252386e-02, 1.01747856e-01, 1.01162359e-01,
          1.36395171e-01, 2.38428101e-01, 2.38353938e-01, 3.67026450e-03,
          0., 0., 0., 6.81171790e-02, 1.82387948e-01, 2.01783448e-01,
          2.20010832e-01, 1.52877942e-01, 6.29658997e-03, 0., 0., 0.,
          9.36171636e-02, 1.50475726e-01, 2.08273515e-01, 1.36506811e-01,
          1.77217022e-01, 5.54268397e-02, 0., 0., 0., 5.48832584e-03,
          1.60478786e-01, 2.11402252e-01, 2.11766437e-01, 1.67878866e-01,
          7.36173615e-02, 0., 0., 0., 1.55208200e-01 ]
      - [ 3.02593559e-01, 1.80735826e-01, 1.37108028e-01, 8.87915343e-02,
          8.76943991e-02, 1.94446500e-02, 0., 1.28244888e-02,
          2.33836129e-01, 1.00233756e-01, 1.30010337e-01, 1.15239672e-01,
          5.77760339e-02, 9.60216075e-02, 6.11884706e-02, 1.06071178e-02,
          1.86107233e-01, 5.17699458e-02, 5.89632094e-02, 9.81411189e-02,
          1.13463312e-01, 1.26224622e-01, 1.08814046e-01, 1.29914731e-01,
          2.02969342e-01, 2.19134968e-02, 1.16817215e-02, 0.,
          1.54828638e-01, 1.30594909e-01, 2.03880608e-01, 2.17763975e-01,
          1.16636567e-01, 0., 0., 0., 6.77689761e-02, 1.21596649e-01,
          2.42900386e-01, 2.19656140e-01, 1.55343413e-01, 0., 0., 0., 0.,
          4.67987210e-02, 1.79692715e-01, 1.53121263e-01, 2.09078714e-01,
          1.74926192e-01, 5.27271703e-02, 0., 1.34587493e-02,
          5.52155031e-03, 3.99911068e-02, 1.11114949e-01, 2.27308854e-01,
          2.55835474e-01, 8.69948491e-02, 1.05564982e-01, 0.,
          1.95294339e-02, 0., 0. ]
      - [ 2.70551383e-01, 2.24431723e-01, 9.55440104e-02, 1.71963573e-01,
          2.09739208e-02, 0., 0., 0., 1.34368524e-01, 2.13868871e-01,
          1.15847409e-01, 6.36034980e-02, 1.37034506e-02, 0., 0.,
          2.29747090e-02, 2.47287229e-01, 1.34258904e-02, 0., 0.,
          1.13390356e-01, 8.97477940e-02, 1.37676522e-01, 2.54834920e-01,
          2.05142684e-02, 0., 0., 0., 7.25281388e-02, 6.94844425e-02,
          2.36021176e-01, 1.59904122e-01, 2.53553670e-02, 0., 0., 0.,
          9.49053988e-02, 1.93463981e-01, 1.89875543e-01, 2.39218011e-01,
          1.41054973e-01, 0., 0., 0., 1.04012035e-01, 8.14328566e-02,
          1.68457255e-01, 1.87065616e-01, 1.63395271e-01, 2.11731941e-01,
          1.23536177e-01, 4.99346331e-02, 3.71818384e-03, 0.,
          8.27222597e-03, 1.20139960e-02, 2.98831224e-01, 2.01426208e-01,
          1.34702057e-01, 4.89936806e-02, 4.54033315e-02, 0.,
          3.52835841e-02, 1.14387520e-01 ]
      - [ 2.72337675e-01, 2.06681728e-01, 1.88756183e-01, 1.12590685e-01,
          0., 0., 0., 0., 2.33041629e-01, 1.17932998e-01, 8.04507434e-02,
          1.53281316e-01, 5.65542355e-02, 0., 0., 0., 2.18188852e-01,
          1.17352791e-02, 0., 1.16306126e-01, 1.12937778e-01,
          7.75093064e-02, 1.21419974e-01, 2.32866764e-01, 4.95474599e-02,
          0., 4.79006432e-02, 8.33376721e-02, 1.46215558e-01,
          1.58203736e-01, 1.94695741e-01, 1.77963793e-01, 2.04770893e-01,
          0., 0., 0., 0., 1.78336516e-01, 2.28757679e-01, 1.39979228e-01,
          2.21812174e-01, 3.10547231e-03, 0., 0., 3.47202346e-02,
          6.92009851e-02, 9.50944871e-02, 1.35746628e-01, 2.41409466e-01,
          9.31070223e-02, 6.86568618e-02, 2.88745966e-02, 0., 0., 0., 0.,
          2.68509984e-01, 2.02995539e-01, 1.38224155e-01, 1.46562263e-01,
          4.64376435e-03, 0., 1.89208202e-02, 4.05440554e-02 ]
      - [ 2.08092064e-01, 2.01437429e-01, 1.38447180e-01, 1.32963702e-01,
          1.25153232e-02, 0., 1.84888151e-02, 2.03679144e-01,
          1.34453237e-01, 1.27171159e-01, 5.35990298e-02, 9.80360880e-02,
          9.79612842e-02, 9.51458439e-02, 7.60439225e-03, 2.04318106e-01,
          1.21191286e-01, 0., 0., 1.12381421e-01, 1.21336490e-01,
          7.86476210e-02, 9.23607498e-02, 2.42292419e-01, 4.36827950e-02,
          0., 3.91370989e-02, 7.12253675e-02, 4.55857143e-02,
          2.22241357e-01, 1.85109392e-01, 2.47154996e-01, 5.22109261e-03,
          0., 0., 0., 7.85023123e-02, 1.41084969e-01, 2.10134014e-01,
          2.69768566e-01, 8.79874155e-02, 8.21368303e-03, 0., 0.,
          3.39237265e-02, 1.05046101e-01, 1.61760315e-01, 1.99713618e-01,
          2.34603256e-01, 1.28141150e-01, 7.24048764e-02, 4.17983457e-02,
          0., 0., 0., 1.66424990e-01, 2.17156753e-01, 2.04022676e-01,
          1.86277300e-01, 0., 0., 0., 0., 2.46658437e-02 ]
      - [ 2.60412335e-01, 2.16061145e-01, 1.42204657e-01, 5.11074252e-02,
          0., 0., 2.07563955e-02, 1.20273553e-01, 1.88768104e-01,
          1.05590679e-01, 1.20801575e-01, 4.32025455e-02, 0., 0.,
          6.33227825e-03, 1.14921540e-01, 1.37639850e-01, 3.10380524e-03,
          0., 0., 1.09470338e-01, 9.37441140e-02, 5.26410639e-02,
          2.01496467e-01, 1.55381605e-01, 2.10907124e-02, 0., 0.,
          1.00102656e-01, 1.97236761e-01, 1.50601566e-01, 2.67050117e-01,
          0., 0., 0., 0., 7.23710954e-02, 1.75180525e-01, 2.07327038e-01,
          2.33901769e-01, 1.52519956e-01, 1.02941571e-02, 0.,
          1.18176468e-01, 8.99876058e-02, 1.00220412e-01, 1.65408522e-01,
          2.01754510e-01, 1.36755884e-01, 1.69348836e-01, 1.05260782e-01,
          1.51446596e-01, 0., 0., 4.38944343e-03, 1.68524638e-01,
          2.40272909e-01, 2.06098452e-01, 1.63826853e-01, 0., 0.,
          4.55335043e-02, 4.38944343e-03, 1.56715050e-01 ]
      - [ 2.77648926e-01, 2.34816164e-01, 3.62752229e-02, 0., 0.,
          9.93325002e-03, 0., 1.16236106e-01, 1.96619123e-01,
          1.30772382e-01, 1.48520201e-01, 1.19153768e-01, 8.15767795e-03,
          0., 4.33849450e-03, 1.16401471e-01, 2.13914365e-01,
          2.43875105e-02, 0., 1.16043694e-01, 1.09255619e-01,
          9.34730247e-02, 1.03583418e-01, 2.09996626e-01, 1.18078344e-01,
          0., 0., 4.14585397e-02, 1.24909341e-01, 1.82217985e-01,
          1.63428053e-01, 1.98816806e-01, 1.64211378e-01, 7.59119075e-03,
          0., 0., 0., 5.64467236e-02, 2.15728849e-01, 2.63427854e-01,
          1.65114924e-01, 0., 5.45536773e-03, 0., 8.29376951e-02,
          7.62784109e-02, 1.26496553e-01, 1.93641722e-01, 2.15406880e-01,
          1.24372482e-01, 1.19001724e-01, 0., 5.15936827e-03, 0.,
          4.33849450e-03, 1.16372310e-01, 2.83892989e-01, 1.35052994e-01,
          1.81421697e-01, 1.25266999e-01, 0., 0., 8.28037970e-03,
          6.64240792e-02 ]
      - [ 2.10051209e-01, 2.28314996e-01, 6.51768446e-02, 3.84218395e-02,
          5.15398793e-02, 0., 5.41514857e-03, 1.18809484e-01,
          1.65247068e-01, 1.86929673e-01, 8.90682191e-02, 6.04206659e-02,
          1.32553965e-01, 1.10685550e-01, 1.71541367e-02, 2.21091926e-01,
          1.42600626e-01, 2.91722342e-02, 1.01319529e-01, 6.60858303e-02,
          1.15975566e-01, 1.04625307e-01, 1.81614757e-01, 1.77372515e-01,
          7.55583122e-02, 0., 9.92098153e-02, 1.09514751e-01,
          1.00888804e-01, 1.57043964e-01, 2.19649062e-01, 2.27767363e-01,
          4.67511453e-03, 0., 0., 0., 7.70630389e-02, 1.19722709e-01,
          2.24119067e-01, 2.65786886e-01, 1.12536512e-01, 7.07646552e-03,
          0., 0., 0., 3.89274769e-02, 1.35906547e-01, 2.34494373e-01,
          1.36702016e-01, 1.25133976e-01, 4.85706292e-02, 0., 0., 0.,
          5.41514857e-03, 1.67615280e-01, 1.94551244e-01, 2.09525138e-01,
          1.39117211e-01, 1.33301392e-01, 2.56718472e-02, 0., 0.,
          1.67352602e-01 ]
      - [ 2.06887737e-01, 1.66114956e-01, 1.64515734e-01, 0., 0., 0.,
          2.12493092e-02, 1.15907535e-01, 1.88445404e-01, 1.44132823e-01,
          9.72414240e-02, 1.10043846e-01, 1.15392394e-01, 0.,
          7.09735742e-03, 2.32869089e-01, 1.15254164e-01, 0., 0., 0.,
          1.50870577e-01, 1.09137326e-01, 1.65433645e-01, 2.03878313e-01,
          3.43122892e-02, 0., 3.31409946e-02, 4.57340525e-03,
          7.77742192e-02, 1.13598280e-01, 2.10505322e-01, 2.75380075e-01,
          0., 0., 0., 0., 7.79653564e-02, 1.40015230e-01, 1.94690108e-01,
          2.75137991e-01, 1.14957526e-01, 6.21025451e-03, 0., 0.,
          9.67034921e-02, 1.06166691e-01, 1.48633435e-01, 2.15690061e-01,
          1.83851942e-01, 1.46098912e-01, 9.58820805e-02, 1.12311803e-01,
          4.57340525e-03, 0., 1.26101896e-02, 2.00685173e-01,
          2.20592856e-01, 1.94510385e-01, 1.14407659e-01, 1.12885021e-01,
          0., 7.09735742e-03, 0., 1.15557432e-01 ]
      - [ 1.92570478e-01, 2.30967447e-01, 1.67024314e-01, 8.11958537e-02,
          7.99724311e-02, 5.56659279e-03, 0., 1.72000006e-01,
          1.38762653e-01, 1.01100974e-01, 1.21479772e-01, 1.10398792e-01,
          0., 0., 0., 1.72212884e-01, 8.50515440e-02, 0., 0., 0.,
          7.75715187e-02, 1.14116639e-01, 1.27762482e-01, 2.18775004e-01,
          0., 0., 0., 0., 1.49447739e-01, 1.59199640e-01, 1.63216725e-01,
          2.92945445e-01, 5.26455836e-03, 0., 0., 0., 1.11958064e-01,
          1.59655556e-01, 2.14701250e-01, 2.63688564e-01, 8.81386101e-02,
          5.42188203e-03, 0., 0., 1.14478670e-01, 7.86456391e-02,
          1.72298804e-01, 1.96436673e-01, 1.61100209e-01, 1.04858764e-01,
          9.35579240e-02, 1.39858007e-01, 0., 0., 7.66769936e-03,
          9.18115675e-03, 2.73435593e-01, 2.09235743e-01, 1.89718619e-01,
          8.30039382e-02, 0., 0., 0., 1.62843689e-01 ]
      - [ 2.86945313e-01, 1.60888314e-01, 2.19749629e-01, 0.,
          8.38989168e-02, 0., 0., 3.45215239e-02, 1.95815176e-01,
          1.63656220e-01, 1.02822348e-01, 3.57114784e-02, 1.18254952e-01,
          0., 0., 0., 2.52440661e-01, 8.35251622e-03, 7.04750000e-03,
          5.92621742e-03, 1.17484018e-01, 1.24346808e-01, 1.56103611e-01,
          1.44355044e-01, 1.67189196e-01, 7.04750000e-03, 0.,
          7.67436400e-02, 7.96058252e-02, 2.03197598e-01, 1.61545724e-01,
          1.44470811e-01, 1.66714117e-01, 0., 1.24961156e-02, 0.,
          2.06701197e-02, 2.17584580e-01, 1.61407575e-01, 2.48194009e-01,
          1.45823628e-01, 3.12098535e-03, 0., 0., 2.97588129e-02,
          1.15467198e-01, 1.06500939e-01, 1.56606972e-01, 2.56440938e-01,
          1.02024883e-01, 1.11992083e-01, 5.92621742e-03, 0.,
          7.04750000e-03, 1.22354236e-02, 0., 2.44700447e-01,
          2.50095457e-01, 1.59075081e-01, 7.77596757e-02, 0., 0., 0., 0. ]
      - [ 1.91934466e-01, 2.32631564e-01, 9.88003016e-02, 1.32523581e-01,
          1.04965707e-02, 0., 1.99080911e-02, 2.03268468e-01,
          1.28849640e-01, 1.26897350e-01, 1.01878673e-01, 2.51784883e-02,
          1.11171752e-01, 0., 1.32544776e-02, 2.03739867e-01,
          1.00703664e-01, 1.06351040e-02, 1.58389565e-02, 1.13820523e-01,
          7.99722672e-02, 8.83364156e-02, 7.49511719e-02, 2.64528334e-01,
          3.27876322e-02, 0., 0., 5.81591129e-02, 8.58135149e-02,
          1.86057225e-01, 1.40537634e-01, 2.82463074e-01, 5.22798207e-03,
          1.76911261e-02, 0., 0., 1.03843980e-01, 2.13572323e-01,
          1.41295597e-01, 2.64429927e-01, 9.49376747e-02, 1.44430222e-02,
          0., 0., 0., 1.01926617e-01, 2.29128674e-01, 1.55629694e-01,
          1.51840687e-01, 2.02876031e-01, 1.16936766e-01, 0., 0., 0.,
          1.07684257e-02, 2.00041875e-01, 1.86756596e-01, 2.31263593e-01,
          1.13639794e-01, 8.49278122e-02, 6.57383958e-03, 1.31987389e-02,
          0., 1.14988834e-01 ]
      - [ 1.88615352e-01, 1.95415765e-01, 1.39445394e-01, 1.14148147e-01,
          8.11088160e-02, 0., 0., 1.18466720e-01, 1.60546347e-01,
          1.78446278e-01, 6.74779937e-02, 1.23161495e-01, 7.95501024e-02,
          9.37247202e-02, 2.88819615e-02, 2.32715115e-01, 1.01867191e-01,
          2.23671757e-02, 9.14070457e-02, 7.76595771e-02, 1.09726548e-01,
          8.38318095e-02, 1.75663531e-01, 1.59669355e-01, 1.28836930e-01,
          0., 0., 1.05507709e-01, 1.84099436e-01, 1.61312535e-01,
          1.40524298e-01, 2.74968177e-01, 4.12244760e-02, 0., 0., 0.,
          6.83329180e-02, 1.77523702e-01, 1.67849943e-01, 2.88015723e-01,
          9.34572667e-02, 0., 0., 0., 9.85445362e-03, 6.08201027e-02,
          1.29439786e-01, 2.13288844e-01, 1.98077559e-01, 1.26852885e-01,
          6.59461096e-02, 0., 0., 0., 3.13203083e-03, 1.50253609e-01,
          1.85474426e-01, 2.24815682e-01, 1.33123845e-01, 1.54309824e-01,
          0., 0., 0., 9.74564850e-02 ]
      - [ 2.15215072e-01, 2.58247733e-01, 1.20121777e-01, 2.30420381e-02,
          0., 0., 4.38412279e-03, 1.35179132e-01, 1.82783604e-01,
          1.25437573e-01, 1.22004762e-01, 1.16497889e-01, 0., 0.,
          3.10004270e-03, 1.64375156e-01, 1.95147350e-01, 9.44642816e-03,
          0., 1.16724081e-01, 0., 9.99637842e-02, 1.13710389e-01,
          1.51420429e-01, 2.03158960e-01, 3.10004270e-03, 0.,
          1.55249555e-02, 6.83119074e-02, 1.61754712e-01, 2.32094064e-01,
          1.79032013e-01, 1.43328696e-01, 1.24602802e-02, 0., 0., 0.,
          1.58183128e-01, 1.92798436e-01, 1.79979861e-01, 2.45048448e-01,
          6.20008539e-03, 0., 0., 9.85357687e-02, 1.08147644e-01,
          1.68479085e-01, 1.47878543e-01, 2.25655824e-01, 1.41230986e-01,
          1.51571587e-01, 0., 0., 0., 1.00389868e-02, 1.36173572e-02,
          2.90273309e-01, 1.85071260e-01, 1.72316834e-01, 6.09998405e-02,
          1.01956325e-02, 0., 0., 0. ]
      - [ 1.99000254e-01, 2.34894320e-01, 9.48574841e-02, 1.08212613e-01,
          1.01611903e-02, 0., 3.11655621e-03, 0., 2.35327974e-01,
          1.07296027e-01, 9.94537026e-02, 1.11289658e-01, 9.22886282e-02,
          0., 1.12675754e-02, 2.05015078e-01, 1.43576950e-01,
          4.40747617e-03, 0., 1.15237258e-01, 9.83924270e-02,
          5.37960120e-02, 9.81375054e-02, 2.53544003e-01, 6.58316463e-02,
          0., 0., 1.09731056e-01, 1.05714038e-01, 0., 2.62583375e-01,
          2.11558878e-01, 4.56183888e-02, 0., 0., 0., 8.72798413e-02,
          1.40799806e-01, 2.18864232e-01, 2.31172055e-01, 1.55787304e-01,
          8.31782259e-03, 0., 0., 1.13993101e-01, 8.20549726e-02,
          1.69510931e-01, 1.88789606e-01, 1.47891462e-01, 2.05071762e-01,
          1.01413690e-01, 0., 0., 0., 9.37839318e-03, 2.02865049e-01,
          1.74573258e-01, 2.27164254e-01, 1.36679664e-01, 1.14626177e-01,
          0., 2.08416674e-02, 3.11655621e-03, 1.17444441e-01 ]
      - [ 2.15653300e-01, 2.31172994e-01, 1.47146955e-01, 7.31041729e-02,
          5.48424274e-02, 2.41753440e-02, 0., 1.76902190e-01,
          1.42955869e-01, 1.32947177e-01, 1.16227798e-01, 9.26625133e-02,
          1.13492601e-01, 4.13555279e-02, 2.94693802e-02, 1.66254073e-01,
          1.12828724e-01, 4.03497331e-02, 0., 1.14276126e-01,
          1.23629451e-01, 7.77932182e-02, 9.04402956e-02, 2.49715790e-01,
          1.97279118e-02, 0., 0., 4.90633734e-02, 9.51226503e-02,
          1.60053998e-01, 2.11043835e-01, 2.64248937e-01, 3.72822490e-03,
          0., 0., 0., 7.91775137e-02, 2.02860937e-01, 1.52135268e-01,
          2.18750283e-01, 1.96628630e-01, 3.20409276e-02, 0., 0.,
          4.52605225e-02, 7.34665915e-02, 1.74940199e-01, 1.95904940e-01,
          2.32291430e-01, 1.04229763e-01, 6.45934492e-02, 8.78787115e-02,
          2.75285020e-02, 0., 1.31987417e-02, 2.02070087e-01,
          1.85998082e-01, 2.57853717e-01, 9.56245288e-02, 0., 0., 0., 0.,
          2.19658930e-02 ]
      - [ 2.62443632e-01, 2.28696153e-01, 1.20168962e-01, 9.07708108e-02,
          0., 0., 0., 0., 2.52513021e-01, 1.11677140e-01, 1.02651596e-01,
          0., 3.68871330e-03, 0., 3.10182571e-03, 8.65237489e-02,
          1.84765846e-01, 0., 0., 0., 0., 1.01496555e-01, 1.37996539e-01,
          1.33847043e-01, 1.91076130e-01, 0., 2.54025105e-02, 0.,
          1.13924429e-01, 1.27655149e-01, 2.03973964e-01, 2.19074711e-01,
          1.17329337e-01, 0., 0., 1.88157726e-02, 1.07181638e-01,
          1.21117346e-01, 2.16793850e-01, 1.75059512e-01, 2.25277558e-01,
          2.07522195e-02, 0., 1.15218274e-01, 7.84898270e-03,
          1.15418188e-01, 2.02546537e-01, 1.53554007e-01, 2.02893347e-01,
          1.87364012e-01, 7.64844045e-02, 9.73017961e-02, 1.14561073e-01,
          0., 1.20266462e-02, 0., 2.80853093e-01, 1.82818130e-01,
          1.71956137e-01, 1.06318623e-01, 7.76919425e-02, 0., 0., 0. ]
      - [ 2.08685979e-01, 2.38363326e-01, 5.01283929e-02, 0.,
          1.79952979e-02, 6.14530966e-03, 0., 2.28858471e-01,
          9.23761278e-02, 1.37335435e-01, 1.09635167e-01, 9.32828858e-02,
          1.15335904e-01, 0., 1.92592349e-02, 1.97661459e-01,
          1.62479997e-01, 3.02643632e-03, 0., 0., 1.47452608e-01,
          1.08836822e-01, 1.33756876e-01, 2.17322424e-01, 1.14747480e-01,
          3.02643632e-03, 0., 0., 8.27773586e-02, 1.26462474e-01,
          2.15399072e-01, 2.35245630e-01, 5.06432578e-02, 0., 0., 0., 0.,
          0., 2.34204501e-01, 2.34113246e-01, 1.77424714e-01,
          6.87625911e-03, 0., 0., 5.03247604e-02, 8.39868337e-02,
          1.67175546e-01, 2.35784382e-01, 1.80482835e-01, 1.67085603e-01,
          3.49222831e-02, 9.22821462e-02, 0., 0., 3.02643632e-03,
          1.98508754e-01, 1.92687124e-01, 2.63389558e-01, 3.75286303e-02,
          0., 0., 0., 0., 1.61909267e-01 ]
      - [ 2.57971525e-01, 1.99573755e-01, 1.36493161e-01, 1.29038930e-01,
          7.42818415e-02, 0., 1.84279177e-02, 8.28908905e-02,
          2.23206326e-01, 1.27130672e-01, 1.03012003e-01, 1.11091673e-01,
          1.12496294e-01, 2.08097585e-02, 6.24489691e-03, 1.16480745e-01,
          8.40069428e-02, 4.38135713e-02, 5.74911460e-02, 9.72385406e-02,
          1.12489961e-01, 9.27065834e-02, 1.29386514e-01, 1.26757458e-01,
          2.00900301e-01, 0., 0., 7.60198385e-02, 1.07854575e-01,
          1.57328099e-01, 2.16730788e-01, 2.52856255e-01, 1.64725453e-01,
          0., 1.30582172e-02, 7.44168609e-02, 8.10516477e-02,
          1.36971310e-01, 1.94884777e-01, 2.42305651e-01, 1.50208816e-01,
          0., 0., 0., 0., 1.03692710e-01, 1.26882240e-01, 1.72987208e-01,
          1.86020866e-01, 1.72983319e-01, 5.29999249e-02, 0., 0., 0.,
          7.13694794e-03, 4.59891651e-03, 2.54279077e-01, 2.32859328e-01,
          1.58713430e-01, 7.66246840e-02, 1.24552110e-02, 0., 0.,
          9.50922444e-02 ]
      - [ 2.96807021e-01, 1.35744452e-01, 2.14127287e-01, 9.04497579e-02,
          0., 0., 0., 0., 1.90671697e-01, 1.67434350e-01, 1.09038234e-01,
          1.33966371e-01, 4.89022247e-02, 0., 4.36854782e-03,
          6.53250236e-03, 2.45838016e-01, 2.11745091e-02, 7.61855347e-03,
          0., 1.14507705e-01, 1.24178901e-01, 1.89465925e-01,
          1.46899462e-01, 1.16847001e-01, 0., 0., 3.03532481e-02,
          1.44360110e-01, 1.31224528e-01, 2.25361899e-01, 1.17455654e-01,
          1.68167591e-01, 0., 0., 0., 6.35559931e-02, 1.75766811e-01,
          1.83903113e-01, 1.84176147e-01, 2.27901876e-01, 3.08902981e-03,
          0., 0., 1.12529136e-01, 6.25819191e-02, 1.03889592e-01,
          1.64260387e-01, 1.96272865e-01, 1.56871721e-01, 4.95124757e-02,
          9.54550356e-02, 0., 0., 3.08902981e-03, 8.77941586e-03,
          2.76451170e-01, 2.21717775e-01, 8.75855163e-02, 1.07104182e-01,
          8.13785717e-02, 1.50603196e-02, 1.10640377e-01, 5.23595735e-02 ]
      - [ 1.96831152e-01, 1.81988552e-01, 1.61406621e-01, 0., 0., 0.,
          6.15014788e-03, 1.59599796e-01, 1.32691115e-01, 1.67438224e-01,
          9.87007022e-02, 1.11239411e-01, 1.15932807e-01, 0.,
          1.57695301e-02, 2.34525651e-01, 1.09157085e-01, 3.07507394e-03,
          0., 0., 1.51011750e-01, 1.09107256e-01, 1.47215962e-01,
          2.16824964e-01, 0., 0., 0., 0., 1.27222449e-01, 1.17225192e-01,
          2.07947403e-01, 2.75388062e-01, 0., 0., 0., 5.83903957e-03, 0.,
          7.24067837e-02, 2.32177541e-01, 2.74490505e-01, 1.16734751e-01,
          7.60924304e-03, 0., 0., 9.62691680e-02, 1.05154715e-01,
          4.51924764e-02, 2.50623763e-01, 1.00086406e-01, 5.27028814e-02,
          9.29903463e-02, 1.10671088e-01, 0., 1.28508108e-02,
          2.05086935e-02, 2.01039463e-01, 1.92388415e-01, 2.21153006e-01,
          1.65460020e-01, 0., 5.83903957e-03, 1.44530842e-02,
          2.23661158e-02, 2.31668219e-01 ]
      - [ 2.36436725e-01, 2.00136602e-01, 1.34775206e-01, 8.12834948e-02,
          1.08855397e-01, 0., 0., 1.61995158e-01, 1.64682254e-01,
          1.20184466e-01, 1.03740469e-01, 9.30168256e-02, 1.11350939e-01,
          3.76328193e-02, 3.11320787e-03, 1.65638745e-01, 1.72328949e-01,
          1.32184019e-02, 2.23240759e-02, 5.03652245e-02, 1.17126428e-01,
          1.28242627e-01, 1.09940782e-01, 1.61633670e-01, 1.71299815e-01,
          0., 0., 0., 1.33662999e-01, 1.57141566e-01, 1.78305835e-01,
          2.35054508e-01, 1.29090920e-01, 0., 2.26240456e-02, 0.,
          1.36522725e-01, 9.12137255e-02, 2.40471825e-01, 2.47942373e-01,
          8.48291814e-02, 1.34559534e-02, 0., 0., 0., 1.17123209e-01,
          1.68962583e-01, 1.51917070e-01, 1.81851789e-01, 1.69734016e-01,
          8.59947875e-02, 6.18530549e-02, 1.10200364e-02, 0., 0.,
          1.75634753e-02, 2.68827945e-01, 2.13626683e-01, 1.58981681e-01,
          1.07802600e-01, 1.76665932e-02, 0., 0., 1.17923737e-01 ]
      - [ 2.83374429e-01, 1.97193161e-01, 1.40102208e-01, 1.04376234e-01,
          7.43787885e-02, 1.85689051e-02, 0., 4.93798777e-02,
          2.33302727e-01, 1.30419210e-01, 9.50129703e-02, 1.12260729e-01,
          3.65525554e-03, 0., 6.14738278e-03, 6.50006579e-03,
          1.90587282e-01, 3.07369139e-03, 0., 0., 1.17122658e-01,
          9.90674272e-02, 1.13718912e-01, 1.49650961e-01, 2.00787440e-01,
          1.55198881e-02, 0., 1.94941759e-02, 8.56303200e-02,
          1.72519237e-01, 1.40503734e-01, 2.46213660e-01, 1.64717928e-01,
          0., 0., 0., 1.06830373e-01, 1.80684805e-01, 2.10466832e-01,
          2.46762156e-01, 8.82956237e-02, 5.46588190e-03, 0., 0.,
          9.74100307e-02, 7.67490938e-02, 1.75083697e-01, 1.37840539e-01,
          2.25129575e-01, 1.70296922e-01, 8.97972658e-02, 8.31675753e-02,
          6.33108849e-03, 0., 8.98624677e-03, 0., 2.66476721e-01,
          2.26684228e-01, 1.47283569e-01, 8.43388736e-02, 0., 0., 0., 0. ]
      - [ 2.90900499e-01, 2.03795046e-01, 9.71162319e-02, 1.35499075e-01,
          5.13352407e-03, 0., 0., 4.62730713e-02, 1.97080612e-01,
          1.63450047e-01, 1.11256748e-01, 9.68838260e-02, 0., 0.,
          6.22742670e-03, 0., 2.00104013e-01, 9.42612663e-02, 0., 0.,
          4.56442032e-03, 1.34654090e-01, 1.75955936e-01, 1.67571396e-01,
          1.49405822e-01, 3.05241160e-03, 0., 0., 0., 3.31582725e-02,
          2.51308799e-01, 1.91294461e-01, 1.99918360e-01, 1.13270096e-02,
          8.92403349e-03, 5.79600781e-03, 1.39292702e-01, 1.38231069e-01,
          2.17173487e-01, 1.77472576e-01, 2.07853138e-01, 8.63352418e-03,
          0., 0., 1.14960440e-01, 1.23337157e-01, 1.21897504e-01,
          1.02424055e-01, 2.40890443e-01, 1.34615272e-01, 9.63640362e-02,
          2.61070542e-02, 1.12800144e-01, 0., 5.28693199e-03, 0.,
          3.08250248e-01, 2.19184563e-01, 4.38898914e-02, 0.,
          4.56442032e-03, 0., 4.31676209e-03, 9.43115726e-02 ]
      - [ 2.76751369e-01, 2.37564623e-01, 8.16504210e-02, 8.97471681e-02,
          6.23719618e-02, 1.99283659e-02, 0., 0., 2.09718034e-01,
          1.71598017e-01, 1.33062094e-01, 9.40012932e-03, 0.,
          5.50527591e-03, 0., 5.87847875e-03, 1.01714075e-01, 0., 0., 0.,
          1.05820037e-01, 7.86753297e-02, 1.66255310e-01, 1.58487007e-01,
          1.57782763e-01, 0., 0., 0., 9.01618898e-02, 9.01545882e-02,
          2.56343365e-01, 2.45148346e-01, 2.02945083e-01, 0.,
          7.63536012e-03, 1.27755199e-02, 1.12545289e-01, 9.69183743e-02,
          2.03185081e-01, 2.31256291e-01, 1.92520007e-01, 1.16244806e-02,
          0., 1.14835836e-01, 0., 1.00364745e-01, 1.36967406e-01,
          1.29489869e-01, 2.20743030e-01, 1.34459928e-01, 1.07281059e-01,
          1.04792506e-01, 0., 5.50527591e-03, 7.68510345e-03,
          1.14327734e-02, 3.10813606e-01, 1.42159685e-01, 1.78414419e-01,
          8.99457857e-02, 0., 0., 0., 9.35377553e-02 ]
      - [ 2.83411503e-01, 1.77119136e-01, 1.06737174e-01, 0.,
          3.63645144e-03, 0., 0., 0., 1.99677885e-01, 2.02545151e-01,
          8.89755860e-02, 1.15553126e-01, 6.85112597e-03, 0.,
          6.94769854e-03, 1.59181774e-01, 2.01265067e-01, 1.22552896e-02,
          0., 1.15601957e-01, 5.30403741e-02, 9.40793157e-02,
          1.65846974e-01, 1.82041615e-01, 1.64075419e-01, 3.05787893e-03,
          0., 0., 0., 1.45244515e-02, 1.79668874e-01, 2.61519164e-01,
          2.00192839e-01, 6.90499879e-03, 8.68257694e-03, 0.,
          7.86071494e-02, 1.58905864e-01, 1.94155082e-01, 2.11444035e-01,
          2.01154113e-01, 1.01418365e-02, 0., 6.46662666e-03, 0.,
          9.42186564e-02, 1.86536133e-01, 9.20298621e-02, 2.10466117e-01,
          1.35866195e-01, 1.11682706e-01, 9.39150602e-02, 3.63645144e-03,
          0., 0., 4.57259547e-03, 3.01939875e-01, 2.28014439e-01,
          5.97010851e-02, 0., 8.98065045e-03, 0., 3.05787893e-03,
          1.32198825e-01 ]
      - [ 2.80752748e-01, 1.97682187e-01, 1.62809715e-01, 8.29865783e-02,
          8.06055367e-02, 0., 5.52463252e-03, 0., 2.41631627e-01,
          9.37352106e-02, 6.43793494e-02, 1.16209187e-01, 3.04729920e-02,
          0., 7.71212485e-03, 4.64564376e-03, 1.94497168e-01,
          1.04903327e-02, 0., 0., 9.24715921e-02, 1.05742089e-01,
          1.14605196e-01, 1.60021022e-01, 1.68282643e-01, 1.40057299e-02,
          0., 0., 5.12812398e-02, 1.88472629e-01, 2.37601995e-01,
          1.61982864e-01, 1.18868455e-01, 6.30834792e-03, 0., 0.,
          1.19559608e-01, 1.32104680e-01, 2.19037682e-01, 1.38115346e-01,
          2.49808013e-01, 1.87743083e-02, 0., 0., 1.37077183e-01,
          8.00061524e-02, 1.82050675e-01, 1.34557813e-01, 2.01624170e-01,
          1.79740280e-01, 8.51214454e-02, 1.08925186e-01, 5.62746748e-02,
          0., 6.21345825e-03, 1.03879757e-02, 2.78797150e-01,
          2.07445964e-01, 1.53410271e-01, 1.36858374e-01, 0., 0., 0., 0. ]
      - [ 2.65100092e-01, 2.08496854e-01, 1.39845476e-01, 1.70685098e-01,
          1.28354393e-02, 0., 0., 0., 2.38872722e-01, 9.15938094e-02,
          7.55724311e-02, 1.05079830e-01, 0., 1.83295719e-02,
          7.57528841e-03, 0., 1.94413662e-01, 1.43478485e-02,
          1.26619358e-02, 0., 8.82676244e-02, 1.04656838e-01,
          1.07611150e-01, 1.38227791e-01, 2.19966590e-01, 1.29595082e-02,
          0., 0., 6.03269227e-02, 1.74451277e-01, 1.38903335e-01,
          2.50743717e-01, 1.08483220e-02, 0., 0., 4.62451344e-03,
          9.97065902e-02, 2.36901030e-01, 1.33996591e-01, 2.06817716e-01,
          1.85535356e-01, 2.46246774e-02, 6.27965480e-03, 0.,
          1.32948250e-01, 9.03469026e-02, 1.34398535e-01, 2.08300635e-01,
          1.97923392e-01, 2.14485332e-01, 1.07269138e-01, 4.11587842e-02,
          5.87231526e-03, 0., 6.30941475e-03, 9.50548798e-03,
          2.77248740e-01, 2.05826089e-01, 1.56704292e-01, 1.03887565e-01,
          0., 0., 0., 0. ]
      - [ 1.17667362e-01, 1.55589387e-01, 2.88563877e-01, 0.,
          8.06135125e-03, 0., 0., 0., 0., 0., 1.32607341e-01,
          1.84617028e-01, 1.37117356e-01, 1.02815233e-01, 9.95908678e-02,
          1.08643152e-01, 2.51330286e-01, 1.17411586e-02, 0.,
          7.43148383e-03, 1.24558331e-02, 0., 7.82743935e-03,
          5.85237565e-03, 1.32969758e-02, 6.77876128e-03, 0.,
          5.85237565e-03, 9.96171124e-03, 0., 8.36683363e-02,
          1.01470083e-01, 2.17491508e-01, 0., 2.14257821e-01,
          9.74772498e-02, 9.56964120e-02, 1.10185631e-01, 1.34525165e-01,
          1.41702369e-01, 3.70896280e-01, 1.66831866e-01, 0., 0., 0.,
          1.18274748e-01, 7.87148699e-02, 1.25978485e-01, 3.09984416e-01,
          0., 0., 0., 0., 0., 1.21079624e-01, 9.45892781e-02,
          3.65561962e-01, 1.96063444e-01, 9.46070254e-02, 0.,
          9.15007517e-02, 1.10801309e-01, 9.10898298e-02, 3.57317813e-02 ]
      - [ 1.27488524e-01, 1.53542802e-01, 2.73645341e-01, 0., 0.,
          1.47444997e-02, 0., 0., 1.06311347e-02, 0., 0., 1.46895289e-01,
          1.65304527e-01, 1.45357788e-01, 7.55227879e-02, 1.53325826e-01,
          1.43177643e-01, 1.23556659e-01, 1.21409483e-02, 0.,
          1.01253213e-02, 7.10946834e-03, 0., 0., 4.75438824e-03, 0., 0.,
          0., 6.72372011e-03, 0., 5.85380234e-02, 2.25073099e-01,
          1.19680867e-01, 1.40844509e-01, 2.30473638e-01, 0., 0.,
          1.02625214e-01, 1.38115972e-01, 1.35672659e-01, 4.14356053e-01,
          3.75712514e-02, 0., 0., 0., 5.07458746e-02, 8.42759162e-02,
          1.57478228e-01, 1.80895641e-01, 1.31100416e-01, 0., 0., 0., 0.,
          0., 0., 4.50061798e-01, 1.09751381e-01, 0., 0., 9.35069397e-02,
          0., 1.14623263e-01, 2.57347673e-01 ]
      - [ 1.44718572e-01, 1.85142234e-01, 2.48869687e-01, 0., 0., 0., 0.,
          0., 4.67099762e-03, 0., 0., 1.36299469e-02, 2.24393502e-01,
          1.26785532e-01, 1.12910144e-01, 9.87645611e-02, 2.62680829e-01,
          1.79016702e-02, 6.98477076e-03, 5.87346870e-03, 0., 0., 0., 0.,
          4.67099762e-03, 0., 0., 0., 6.60578813e-03, 0., 9.16815847e-02,
          1.23810790e-01, 2.19864920e-01, 1.40734076e-01, 1.53550118e-01,
          0., 0., 0., 2.04786658e-02, 3.75532508e-02, 4.67386663e-01,
          3.41567583e-02, 0., 0., 7.73024112e-02, 5.81734180e-02,
          1.16684996e-01, 1.00416631e-01, 3.28909665e-01, 0., 0.,
          1.17469374e-02, 0., 0., 0., 2.63219308e-02, 4.70376164e-01,
          2.11519860e-02, 0., 0., 0., 2.28880849e-02, 1.15423396e-01,
          9.85403359e-02 ]
      - [ 1.63430154e-01, 1.28261611e-01, 2.76907623e-01, 1.19967617e-01,
          0., 0., 0., 0., 6.57904521e-03, 0., 0., 1.89113170e-01,
          1.87042773e-01, 7.24922940e-02, 9.72578302e-02, 1.56897366e-01,
          2.98349798e-01, 1.19842626e-02, 1.44317318e-02, 0.,
          9.95713938e-03, 0., 7.82384723e-03, 0., 1.54789900e-02,
          6.77565020e-03, 0., 5.84969018e-03, 8.76459945e-03,
          7.94332940e-03, 1.33221135e-01, 7.32294396e-02, 1.94659412e-01,
          0., 2.23794833e-01, 1.57834459e-02, 7.39455000e-02,
          1.14346026e-02, 1.04253851e-01, 1.64034501e-01, 4.09502387e-01,
          5.17694242e-02, 0., 2.26153675e-02, 0., 7.52068162e-02,
          1.15677327e-01, 0., 2.60898143e-01, 4.63290997e-02, 0., 0., 0.,
          0., 4.39942777e-02, 2.35502139e-01, 3.29933941e-01,
          1.40900493e-01, 1.94539100e-01, 0., 0., 8.39335099e-02, 0.,
          1.40780717e-01 ]
      - [ 1.64250612e-01, 1.83020964e-01, 2.85816699e-01, 1.19064920e-01,
          0., 0., 0., 0., 9.90588218e-03, 0., 0., 1.91476524e-01,
          1.62183464e-01, 1.32636100e-01, 1.38132185e-01, 1.29476324e-01,
          3.69925618e-01, 3.73769850e-02, 9.82128642e-03, 5.83977159e-03,
          4.64419927e-03, 0., 3.90529074e-03, 5.83977159e-03,
          8.04398954e-03, 5.52291516e-03, 0., 5.83977159e-03,
          8.25868454e-03, 1.28157988e-01, 1.36665225e-01, 6.43033385e-02,
          1.66462764e-01, 1.79660901e-01, 7.36546740e-02, 5.30975088e-02,
          0., 3.22888307e-02, 1.00065380e-01, 2.93244481e-01,
          3.35746735e-01, 6.08005971e-02, 1.95342600e-02, 0., 0.,
          8.07209760e-02, 0., 8.51166099e-02, 1.56590283e-01,
          1.70697272e-02, 0., 0., 0., 0., 0., 0., 4.26424712e-01,
          1.46014944e-01, 0., 1.00165322e-01, 1.02759182e-01,
          5.86359762e-02, 0., 3.78353149e-02 ]
      - [ 1.37770236e-01, 1.74639791e-01, 1.88705862e-01, 1.95284322e-01,
          0., 0., 3.96910263e-03, 0., 8.17542709e-03, 5.61315846e-03,
          1.43487394e-01, 1.28048405e-01, 1.20008789e-01, 1.12441324e-01,
          1.55764386e-01, 1.68983087e-01, 2.61854798e-01, 1.12955803e-02,
          7.05817342e-03, 8.39363039e-03, 1.33504169e-02, 0.,
          8.05943366e-03, 0., 1.00677432e-02, 3.96910263e-03, 0.,
          5.93519257e-03, 1.12806950e-02, 0., 1.32930130e-01,
          5.58380634e-02, 1.57280713e-01, 2.45616540e-01, 7.70374388e-02,
          0., 0., 0., 6.37355000e-02, 1.44000888e-01, 4.40631598e-01,
          7.05817342e-03, 0., 0., 0., 0., 1.20613813e-01, 8.06336477e-02,
          2.97613680e-01, 0., 0., 0., 0., 0., 0., 0., 4.35769975e-01,
          1.45706430e-01, 0., 0., 7.54464865e-02, 0., 1.02825493e-01,
          1.50554970e-01 ]
      - [ 1.38998598e-01, 1.43345848e-01, 2.34627843e-01, 9.61454436e-02,
          6.03785086e-03, 0., 0., 0., 0., 0., 0., 0., 2.12206468e-01,
          1.30650505e-01, 1.22412972e-01, 5.61168492e-02, 1.66928947e-01,
          4.98613566e-02, 7.18025491e-03, 9.02869273e-03, 1.35813318e-02,
          0., 4.03775414e-03, 0., 6.79066591e-03, 0., 0., 0.,
          4.80172597e-03, 0., 6.25951886e-02, 8.29684436e-02,
          1.32467523e-01, 6.30854443e-02, 2.82818198e-01, 0.,
          9.88318324e-02, 7.36415312e-02, 1.76408634e-01, 2.24893242e-01,
          3.08152139e-01, 1.82799593e-01, 0., 1.81135517e-02,
          9.79885161e-02, 1.05977766e-01, 6.77706525e-02, 1.38093933e-01,
          3.81622434e-01, 0., 0., 0., 0., 0., 0., 0., 4.45028156e-01,
          1.06373161e-01, 1.00638576e-01, 0., 0., 1.02176480e-01,
          1.24517068e-01, 1.06473811e-01 ]
      - [ 1.59156904e-01, 1.04442395e-01, 3.35119009e-01, 0., 0., 0., 0.,
          0., 6.75590197e-03, 0., 0., 0., 1.98619321e-01, 1.79560870e-01,
          1.19150907e-01, 1.80743560e-01, 3.28359663e-01, 1.71586554e-02,
          1.20882746e-02, 1.08059309e-02, 0., 0., 1.14491144e-02, 0.,
          4.77714418e-03, 0., 0., 0., 4.77714418e-03, 7.14349700e-03,
          1.89879406e-02, 2.67419487e-01, 1.07956320e-01, 1.45522170e-02,
          2.12942690e-01, 0., 1.05265960e-01, 0., 1.43011212e-01,
          1.41130269e-01, 4.14777994e-01, 4.33432646e-02, 0., 0.,
          6.75590197e-03, 0., 3.42782773e-02, 4.02589217e-02,
          1.47041157e-01, 0., 0., 0., 0., 0., 0., 0., 4.45217878e-01,
          1.48629308e-01, 8.11072141e-02, 0., 0., 3.60985212e-02, 0.,
          1.30918354e-01 ]
      - [ 2.19600677e-01, 2.07245767e-01, 2.77375370e-01, 1.19358011e-01,
          0., 0., 0., 0., 4.58236178e-03, 0., 1.29374415e-01,
          2.04667926e-01, 1.37163162e-01, 1.08916111e-01, 1.43247321e-01,
          6.11464567e-02, 3.78108740e-01, 3.64733525e-02, 0.,
          5.76201500e-03, 4.58236178e-03, 0., 6.67409645e-03, 0.,
          4.58236178e-03, 0., 0., 0., 8.67161434e-03, 9.33531895e-02,
          8.98464397e-02, 1.36698082e-01, 1.55201226e-01, 9.04633328e-02,
          1.41602561e-01, 6.26635253e-02, 0., 2.28149667e-02,
          5.66621460e-02, 3.05929482e-01, 2.95074165e-01, 1.60680979e-01,
          0., 1.34625845e-02, 0., 3.67491767e-02, 7.33379200e-02,
          9.30685103e-02, 1.52904063e-01, 0., 0., 0., 0., 2.69814618e-02,
          6.75952137e-02, 1.33136451e-01, 3.74307305e-01, 2.08549693e-01,
          4.98827584e-02, 4.62132767e-02, 8.10817331e-02, 0., 0.,
          2.93588713e-02 ]
      - [ 1.55360147e-01, 1.75034046e-01, 3.27644199e-01, 5.92452986e-03,
          0., 0., 0., 0., 0., 0., 0., 1.73144907e-01, 1.72700629e-01,
          1.51487693e-01, 1.30320296e-01, 1.66100591e-01, 2.91692764e-01,
          1.82091743e-02, 0., 1.12604285e-02, 8.16073921e-03, 0.,
          5.60307410e-03, 0., 0., 3.96197196e-03, 0., 7.52310688e-03,
          6.66321581e-03, 1.25715166e-01, 1.36025816e-01, 2.44314671e-01,
          9.64441523e-02, 8.80618244e-02, 1.31447271e-01, 8.31328779e-02,
          8.02710801e-02, 9.67324749e-02, 1.21912487e-01, 1.67021662e-01,
          3.70198727e-01, 1.79443642e-01, 0., 2.82395910e-02, 0.,
          4.08236310e-02, 6.57684281e-02, 7.23009855e-02, 1.15238093e-01,
          0., 0., 0., 0., 0., 3.96197196e-03, 5.41401915e-02,
          4.19481158e-01, 1.12743944e-01, 9.73861292e-02, 1.01630621e-01,
          1.03294358e-01, 6.39219359e-02, 0., 1.01090610e-01 ]
      - [ 1.89271271e-01, 1.03912629e-01, 3.00847560e-01, 1.26974806e-01,
          4.69655078e-03, 0., 0., 0., 0., 7.89862499e-03, 0., 0.,
          2.54740983e-01, 1.16874397e-01, 1.50577724e-01, 1.33530051e-01,
          3.79546553e-01, 3.94698754e-02, 0., 9.54526849e-03,
          1.05018066e-02, 8.01924989e-03, 6.84041018e-03, 0., 0.,
          5.58517175e-03, 0., 0., 1.42161092e-02, 1.31853819e-01,
          1.02606289e-01, 1.21555328e-01, 1.58338264e-01, 3.46316732e-02,
          1.85765237e-01, 8.39808956e-02, 0., 4.09860462e-02,
          1.09347478e-01, 2.65355647e-01, 3.53977412e-01, 4.80758809e-02,
          2.17799544e-02, 0., 0., 7.22828135e-02, 0., 8.31682533e-02,
          1.42947346e-01, 1.94805823e-02, 0., 0., 0., 0., 0., 0.,
          4.02945161e-01, 1.55157894e-01, 1.58444509e-01, 1.17476963e-01,
          0., 2.21304763e-02, 0., 0. ]
      - [ 6.46519139e-02, 1.76114991e-01, 2.65365452e-01, 1.18435226e-01,
          0., 0., 5.33550419e-03, 0., 0., 3.77277122e-03, 8.34899247e-02,
          2.34532088e-01, 1.17216349e-01, 5.55009954e-02, 1.31225437e-01,
          9.38117579e-02, 2.09485888e-01, 4.60990183e-02, 2.44642012e-02,
          0., 4.48660646e-03, 0., 5.33550419e-03, 5.64160896e-03,
          9.60295089e-03, 7.54554244e-03, 0., 0., 9.15342197e-03, 0.,
          8.43617227e-03, 5.64160896e-03, 2.02805400e-01, 6.37086481e-02,
          1.92543536e-01, 1.15845516e-01, 8.49040784e-03, 6.70904107e-03,
          0., 0., 4.48706806e-01, 7.56716281e-02, 0., 0., 5.71089052e-02,
          1.52327150e-01, 1.06729835e-01, 1.40097678e-01, 4.00155216e-01,
          2.34478302e-02, 0., 0., 0., 0., 0., 0., 4.48127866e-01,
          7.98558816e-02, 1.60556883e-02, 0., 0., 0., 0., 0. ]
      - [ 9.33512822e-02, 1.64421856e-01, 2.49525771e-01, 4.29792218e-02,
          0., 0., 0., 0., 1.15741398e-02, 0., 0., 0., 2.17316240e-01,
          1.26666427e-01, 9.45072398e-02, 1.15689754e-01, 1.46961764e-01,
          8.89392048e-02, 0., 8.40258878e-03, 7.59134628e-03,
          7.06570689e-03, 8.88465624e-03, 0., 7.59134628e-03, 0., 0., 0.,
          1.39465481e-02, 0., 8.70611966e-02, 1.51247978e-01,
          1.73445731e-01, 2.57428773e-02, 2.35205889e-01, 1.64944872e-01,
          9.32684243e-02, 0., 1.00016236e-01, 9.87887681e-02,
          4.35194165e-01, 3.55832465e-02, 0., 0., 0., 1.18918784e-01,
          8.66846517e-02, 1.28055304e-01, 2.29355559e-01, 1.52131304e-01,
          1.20645277e-02, 0., 0., 0., 0., 0., 4.09399718e-01,
          1.65603295e-01, 1.57301620e-01, 0., 9.77925286e-02,
          1.01771675e-01, 1.20128155e-01, 2.31247500e-01 ]
      - [ 1.65511340e-01, 1.52409136e-01, 2.76517540e-01, 1.17352456e-01,
          0., 0., 0., 0., 4.53736121e-03, 3.64014767e-02, 5.78510500e-02,
          1.97471425e-01, 1.62764758e-01, 1.45383939e-01, 1.15988083e-01,
          9.68774110e-02, 3.06180120e-01, 2.30593774e-02, 1.20955668e-02,
          0., 7.28968997e-03, 0., 0., 5.70543017e-03, 6.41679810e-03,
          3.81545094e-03, 0., 0., 4.53736121e-03, 0., 0., 5.70543017e-03,
          1.73936814e-01, 2.02722579e-01, 5.61221875e-02, 0., 0.,
          8.85411911e-03, 0., 0., 4.55633700e-01, 5.46218976e-02, 0., 0.,
          1.30341351e-02, 9.82571095e-02, 1.10679023e-01, 1.24061868e-01,
          3.40512276e-01, 2.52102185e-02, 0., 0., 0., 0., 0., 0.,
          4.55984801e-01, 5.68694286e-02, 0., 0., 0., 0., 0., 0. ]
      - [ 2.75972903e-01, 1.34075671e-01, 2.63064951e-01, 1.35988712e-01,
          0., 0., 0., 0., 0., 0., 1.01602778e-01, 1.66115388e-01,
          1.77613080e-01, 6.91227913e-02, 1.42931268e-01, 1.39453799e-01,
          3.93004328e-01, 2.86596902e-02, 0., 0., 0., 0., 0., 0., 0., 0.,
          0., 0., 0., 0., 1.30099207e-01, 1.00021228e-01, 1.57603636e-01,
          1.18515417e-01, 2.23420076e-02, 0., 0., 0., 0., 0.,
          4.63353366e-01, 4.71038669e-02, 6.88446267e-03, 0.,
          5.78911975e-03, 5.25794923e-02, 7.64849111e-02, 3.38702686e-02,
          1.72486961e-01, 0., 1.40404683e-02, 0., 0., 0., 0., 0.,
          4.38439965e-01, 1.50503829e-01, 7.61082992e-02, 0., 0., 0.,
          5.74662536e-02, 4.21611741e-02 ]
      - [ 1.38173074e-01, 1.49895668e-01, 2.61922717e-01, 1.27248898e-01,
          0., 0., 5.51792979e-03, 0., 8.03672802e-03, 0., 2.93574389e-02,
          1.92729548e-01, 1.60794571e-01, 1.17747873e-01, 1.25912219e-01,
          8.44086111e-02, 2.54496604e-01, 2.07378268e-02, 0.,
          7.40878517e-03, 1.22763049e-02, 0., 8.72461312e-03, 0.,
          8.03672802e-03, 0., 0., 0., 6.56196102e-03, 0., 8.53414461e-02,
          1.04702659e-01, 1.69068471e-01, 3.51570547e-02, 2.25012854e-01,
          9.87768769e-02, 1.05602913e-01, 9.92622450e-02, 1.34239227e-01,
          1.43385157e-01, 4.00663108e-01, 3.87962498e-02, 0., 0., 0.,
          1.16617121e-01, 8.86245966e-02, 1.27351850e-01, 3.08398455e-01,
          0., 0., 1.30463392e-02, 0., 0., 0., 2.09163606e-01,
          2.71765709e-01, 2.92272985e-01, 9.94144380e-02, 0.,
          9.37743261e-02, 1.12357877e-01, 9.16799083e-02, 3.86476070e-02 ]
      - [ 1.75218061e-01, 1.61141470e-01, 2.93568820e-01, 1.57485902e-01,
          0., 0., 5.53315319e-03, 0., 6.58006547e-03, 0., 2.86445245e-02,
          1.95307821e-01, 1.61124438e-01, 1.60322219e-01, 1.23852395e-01,
          1.36477545e-01, 4.05977994e-01, 4.28478010e-02, 1.57928616e-02,
          1.11125642e-02, 1.05714826e-02, 0., 7.82506075e-03, 0.,
          9.30561777e-03, 0., 0., 0., 5.85059728e-03, 7.56208748e-02,
          1.17375907e-02, 1.35690972e-01, 1.18051477e-01, 0.,
          1.58179805e-01, 9.69921127e-02, 9.18995738e-02, 3.18092331e-02,
          1.10770673e-01, 2.78559357e-01, 3.35209310e-01, 3.28625143e-02,
          1.99352950e-02, 0., 2.48143170e-02, 5.18461689e-02,
          6.67852834e-02, 7.71278590e-02, 1.25510275e-01, 4.15058210e-02,
          0., 0., 0., 0., 0., 2.55202532e-01, 2.49714375e-01,
          2.95877129e-01, 8.95217955e-02, 1.80998128e-02, 0., 0., 0., 0. ]
      - [ 2.21489653e-01, 2.15890631e-01, 2.57742167e-01, 6.69753179e-02,
          0., 0., 0., 0., 0., 0., 1.55335203e-01, 1.34542435e-01,
          1.55787900e-01, 1.05067998e-01, 1.49533108e-01, 1.51387468e-01,
          4.29834366e-01, 2.72419211e-02, 0., 0., 0., 0., 0., 0., 0., 0.,
          0., 0., 0., 0., 0., 0., 1.62368089e-01, 8.31941217e-02,
          1.43884942e-01, 2.33432949e-02, 1.39377769e-02, 6.85459189e-03,
          1.29281461e-01, 1.66134283e-01, 4.11626279e-01, 3.35805044e-02,
          6.85459189e-03, 1.39377769e-02, 0., 5.83788864e-02,
          7.23119602e-02, 3.03946435e-02, 1.72689810e-01, 1.33527955e-02,
          0., 0., 0., 0., 0., 0., 4.62388933e-01, 4.29086052e-02, 0., 0.,
          0., 0., 0., 0. ]
      - [ 1.87037289e-01, 1.46826580e-01, 2.86459744e-01, 9.34879705e-02,
          0., 0., 0., 0., 0., 0., 1.54251486e-01, 1.58102080e-01,
          1.29005030e-01, 1.06359623e-01, 1.49187952e-01, 1.65056422e-01,
          3.07131529e-01, 1.25652000e-01, 1.43624172e-02, 0.,
          4.54179524e-03, 0., 6.61501242e-03, 0., 4.54179524e-03,
          3.81917902e-03, 0., 0., 8.07658024e-03, 6.79156790e-03,
          1.27179444e-01, 1.80268541e-01, 1.35189950e-01, 1.18640594e-01,
          1.45671740e-01, 0., 7.86662009e-03, 0., 0., 0., 4.56130028e-01,
          5.09846546e-02, 6.79156790e-03, 8.53994396e-03, 9.08359047e-03,
          5.50239496e-02, 8.38645697e-02, 1.38710380e-01, 1.44364759e-01,
          1.53720483e-01, 1.62531864e-02, 0., 0., 0., 0., 0.,
          4.57292259e-01, 3.78716141e-02, 1.62531864e-02, 0., 0., 0.,
          1.12601951e-01, 7.20234662e-02 ]
      - [ 7.84097165e-02, 2.25317508e-01, 2.61199892e-01, 0., 0., 0., 0.,
          0., 0., 0., 1.27398074e-01, 1.94651246e-01, 1.45931840e-01,
          9.04924646e-02, 9.30778235e-02, 1.28818110e-01, 2.76773334e-01,
          3.10445931e-02, 7.89220724e-03, 0., 8.00579414e-03,
          6.91172201e-03, 0., 0., 6.53670309e-03, 0., 0., 0., 0., 0.,
          8.78828019e-02, 5.27321324e-02, 1.70495957e-01, 1.71612471e-01,
          1.86374232e-01, 0., 9.37022269e-02, 1.08116642e-01,
          1.32650197e-01, 1.46274477e-01, 3.97308171e-01, 3.43620293e-02,
          0., 0., 6.55648336e-02, 9.36888754e-02, 8.75733867e-02,
          1.25852063e-01, 3.08056206e-01, 0., 0., 1.19380606e-02, 0., 0.,
          0., 1.46913916e-01, 3.39236140e-01, 2.46728510e-01,
          1.01809278e-01, 9.14912820e-02, 3.46343890e-02, 9.13765579e-02,
          0., 9.22325104e-02 ]
      - [ 1.56905890e-01, 1.04729153e-01, 3.20558637e-01, 0.,
          4.62041702e-03, 6.90913480e-03, 0., 0., 6.53425651e-03, 0., 0.,
          2.03182742e-01, 1.78923786e-01, 1.12493888e-01, 1.09970659e-01,
          9.99920592e-02, 3.00552189e-01, 1.09892655e-02, 0.,
          5.80986682e-03, 6.53425651e-03, 6.90913480e-03, 0., 0.,
          1.28572322e-02, 6.72952319e-03, 0., 0., 9.88935307e-03,
          6.90913480e-03, 7.77058396e-03, 8.21639225e-03, 1.51640922e-01,
          1.06880881e-01, 1.94402903e-01, 1.08581567e-02, 0.,
          6.37657568e-02, 1.48146912e-01, 2.07701758e-01, 3.27345222e-01,
          2.09859937e-01, 0., 0., 0., 7.47116655e-02, 1.03578277e-01,
          1.55236959e-01, 3.45568091e-01, 0., 0., 0., 0., 0.,
          1.27508221e-02, 1.93236005e-02, 4.57269281e-01, 1.73864048e-02,
          0., 0., 0., 0., 0., 0. ]
      - [ 1.47501394e-01, 1.93037689e-01, 2.61444449e-01, 6.78936243e-02,
          0., 0., 0., 0., 4.56713606e-03, 0., 1.52488261e-01,
          1.85886934e-01, 7.33752595e-03, 1.49225935e-01, 1.29224226e-01,
          6.27848879e-02, 3.09199244e-01, 2.61723883e-02, 0., 0., 0., 0.,
          3.84048838e-03, 0., 1.25750927e-02, 6.82946155e-03, 0., 0., 0.,
          0., 3.84048838e-03, 0., 2.15951815e-01, 1.97000191e-01,
          4.78911251e-02, 9.28224623e-03, 4.56713606e-03, 0.,
          1.32201225e-01, 1.38999805e-01, 4.21471268e-01, 3.34573910e-02,
          0., 0., 7.76094496e-02, 1.05858311e-01, 7.84062520e-02,
          9.94290486e-02, 3.39955807e-01, 0., 1.43880863e-02, 0., 0., 0.,
          0., 0., 4.35591221e-01, 1.64524212e-01, 2.85964701e-02, 0., 0.,
          0., 0., 2.52380725e-02 ]
      - [ 8.55804682e-02, 2.11585298e-01, 2.78148860e-01, 6.42645359e-02,
          6.40721899e-03, 0., 0., 1.54289054e-02, 4.53058816e-03, 0.,
          1.53101519e-01, 1.64879367e-01, 1.75342530e-01, 1.05227865e-01,
          1.19733416e-01, 1.03774734e-01, 2.83007950e-01, 2.21161060e-02,
          0., 0., 0., 0., 3.80975520e-03, 0., 8.57363828e-03,
          6.77480921e-03, 0., 0., 0., 0., 3.80975520e-03, 0.,
          1.97960332e-01, 1.59256816e-01, 1.65300354e-01, 0., 0.,
          2.93968730e-02, 1.65740713e-01, 1.94041640e-01, 3.32170188e-01,
          1.87343583e-01, 5.47692515e-02, 0., 7.61693269e-02,
          5.10139465e-02, 9.77653265e-02, 1.18803017e-01, 3.52852702e-01,
          0., 0., 0., 0., 0., 0., 0., 4.52494234e-01, 1.42547991e-02, 0.,
          0., 0., 0., 0., 0. ]
      - [ 1.55990809e-01, 1.67485774e-01, 3.29997510e-01, 6.07251097e-03,
          0., 0., 0., 0., 4.82929032e-03, 0., 7.38322437e-02,
          1.49140954e-01, 1.22312516e-01, 1.49176612e-01, 1.23523876e-01,
          1.77482128e-01, 3.57623518e-01, 3.87480222e-02, 8.24589934e-03,
          0., 6.07251097e-03, 0., 0., 0., 8.36457592e-03, 7.22147338e-03,
          2.69267391e-02, 4.18182313e-02, 0., 3.94233465e-02,
          1.00205451e-01, 2.67968655e-01, 8.42797309e-02, 0.,
          1.63558230e-01, 1.39721036e-01, 0., 1.37173608e-01,
          1.71912760e-01, 1.39697030e-01, 3.82712454e-01, 5.32693230e-02,
          0., 0., 0., 2.08282284e-02, 4.01768461e-02, 5.31214513e-02, 0.,
          4.09471020e-02, 7.22147338e-03, 0., 0., 0., 0., 0.,
          4.54925358e-01, 1.12115763e-01, 1.73474997e-02, 8.23817626e-02,
          2.02064924e-02, 3.77622321e-02, 4.94714677e-02, 5.85426800e-02 ]
      - [ 1.09225899e-01, 1.15522750e-01, 2.29226455e-01, 1.31017014e-01,
          1.29314493e-02, 0., 0., 0., 4.71075159e-03, 0., 0.,
          1.97789833e-01, 8.38011354e-02, 1.03724852e-01, 1.28716916e-01,
          1.17352717e-01, 1.86975166e-01, 1.77884232e-02, 8.04349780e-03,
          1.63628776e-02, 0., 9.19246953e-03, 0., 0., 1.34584755e-02,
          6.86109299e-03, 0., 5.92345651e-03, 5.92345651e-03,
          1.22009413e-02, 8.27401578e-02, 8.90041739e-02, 2.24217713e-01,
          4.72631939e-02, 2.76402622e-01, 1.27103981e-02, 0., 0.,
          1.34153828e-01, 1.64307788e-01, 4.19279516e-01, 3.07050273e-02,
          0., 0., 1.08032830e-01, 5.10543138e-02, 1.18378706e-01,
          1.37383029e-01, 3.21909547e-01, 1.31379934e-02, 0., 0., 0., 0.,
          0., 0., 4.06108886e-01, 1.58278659e-01, 9.47724879e-02,
          1.18778571e-01, 0., 9.49314609e-02, 1.70641750e-01,
          1.17105283e-01 ]
      - [ 1.40827671e-01, 9.71743166e-02, 2.70981044e-01, 1.34358138e-01,
          8.19687080e-03, 0., 0., 0., 4.73246584e-03, 0., 0.,
          1.99734822e-01, 1.20507248e-01, 1.49788961e-01, 1.15082808e-01,
          1.43535718e-01, 3.56118292e-01, 5.22635393e-02, 8.08057375e-03,
          0., 1.21405395e-02, 0., 3.97951342e-03, 0., 4.73246584e-03,
          5.62788174e-03, 0., 0., 0., 0., 1.31154671e-01, 1.43259838e-01,
          1.38706997e-01, 4.10497747e-02, 2.34664902e-01, 1.30126059e-01,
          0., 9.68164876e-02, 1.31442338e-01, 1.07745543e-01,
          4.07570809e-01, 4.38273847e-02, 0., 0., 0., 0., 1.06852822e-01,
          1.04961053e-01, 2.14755997e-01, 2.11642291e-02, 0., 0., 0., 0.,
          1.70883331e-02, 2.62602091e-01, 3.20269316e-01, 2.26082578e-01,
          0., 0., 9.86610055e-02, 0., 0., 0. ]
      - [ 2.03073055e-01, 1.38566747e-01, 2.89661258e-01, 1.38060674e-01,
          5.91114070e-03, 0., 0., 0., 4.70095733e-03, 3.95301823e-03, 0.,
          0., 2.63276279e-01, 1.42945603e-01, 1.17961392e-01,
          1.37350261e-01, 3.79989654e-01, 3.82406414e-02, 0.,
          7.50610512e-03, 1.29435537e-02, 0., 6.84682792e-03,
          5.91114070e-03, 5.91114070e-03, 0., 0., 0., 4.70095733e-03,
          9.76185650e-02, 1.31248727e-01, 1.17217138e-01, 1.56706616e-01,
          1.93741545e-02, 1.65359780e-01, 0., 6.64208829e-02, 0.,
          4.08688933e-02, 2.41353408e-01, 3.71564001e-01, 1.25348881e-01,
          2.34054383e-02, 2.76249107e-02, 0., 4.10301164e-02,
          6.20029718e-02, 7.65378848e-02, 1.44758716e-01, 0., 0., 0., 0.,
          0., 4.36891094e-02, 2.58722633e-01, 2.74844348e-01,
          2.56477833e-01, 2.30697710e-02, 1.12028837e-01, 0., 0., 0., 0. ]
      - [ 1.88724667e-01, 1.20823152e-01, 3.33078414e-01, 0., 0., 0., 0.,
          0., 4.73745912e-03, 0., 5.43447211e-02, 1.54410273e-01,
          1.66806072e-01, 1.01696126e-01, 1.68258831e-01, 1.70762151e-01,
          4.15248454e-01, 4.05776612e-02, 0., 5.95703954e-03,
          4.73745912e-03, 0., 3.98371229e-03, 0., 0., 3.98371229e-03, 0.,
          0., 0., 9.53377113e-02, 1.12859197e-01, 1.50416493e-01,
          1.01281606e-01, 3.49937268e-02, 1.63911536e-01, 9.90308374e-02,
          8.42452608e-03, 1.01330541e-01, 1.38818458e-01, 1.29504979e-01,
          4.12644476e-01, 3.44245806e-02, 0., 0., 0., 0., 3.80040966e-02,
          4.52510901e-02, 1.09937275e-02, 2.09509321e-02, 0., 0., 0., 0.,
          0., 0., 4.32059824e-01, 1.43961862e-01, 1.02188773e-01,
          9.93764997e-02, 0., 0., 0., 0. ]
      - [ 1.37323827e-01, 1.91110656e-01, 1.50432318e-01, 2.06303000e-01,
          1.01704501e-01, 0., 0., 0., 4.31921259e-02, 1.41706064e-01,
          1.68461099e-01, 1.64881051e-01, 1.38078585e-01, 1.30197823e-01,
          1.20105729e-01, 1.46031886e-01, 1.26230344e-01, 3.53811294e-01,
          5.91860339e-02, 0., 0., 5.82195893e-02, 3.05915494e-02,
          9.15767998e-02, 7.34063238e-02, 5.76665960e-02, 0.,
          8.61394778e-02, 1.69017360e-01, 8.30305889e-02, 7.13918582e-02,
          1.33115947e-01, 9.38559771e-02, 1.32052362e-01, 0., 0.,
          1.78939238e-01, 1.07664399e-01, 2.39472732e-01, 1.23664469e-01,
          2.07321301e-01, 1.51253521e-01, 2.81805862e-02, 0., 0.,
          1.11030594e-01, 1.04555219e-01, 1.57273754e-01, 0.,
          7.77689964e-02, 1.91636886e-02, 8.29840600e-02, 2.05729112e-01,
          1.20801941e-01, 1.15647368e-01, 1.20429300e-01, 1.38418868e-01,
          2.93369025e-01, 0., 1.16768911e-01, 1.18149303e-01, 0., 0., 0. ]
      - [ 1.57062516e-01, 2.56650150e-01, 8.99274945e-02, 1.02144249e-01,
          6.96739629e-02, 0., 7.38729117e-03, 0., 5.55613404e-03,
          1.79351106e-01, 1.69738770e-01, 1.29063994e-01, 1.11250356e-01,
          1.19161874e-01, 1.11434579e-01, 8.60795155e-02, 1.48045823e-01,
          3.34100008e-01, 2.64808927e-02, 0., 0., 0., 5.03861979e-02,
          6.42165989e-02, 7.33386204e-02, 6.70829928e-03, 0.,
          1.90699175e-01, 1.38064727e-01, 1.00521058e-01, 9.89611670e-02,
          6.47076666e-02, 1.16023816e-01, 1.84517741e-01, 0., 0.,
          1.01116978e-01, 2.06336066e-01, 1.46131933e-01, 1.08711019e-01,
          2.46594876e-01, 1.86660513e-01, 0., 0., 0., 1.27672195e-01,
          1.12395264e-01, 1.41216144e-01, 5.97122870e-02, 5.42106628e-02,
          0., 1.27473265e-01, 1.82733685e-01, 1.49082214e-01,
